svm_type c_svc
kernel_type linear
nr_class 2
total_sv 229
rho 2.42346
label 1 -1
nr_sv 109 120
SV
2.910612334628836e-08 195:255 196:255 197:255 198:255 207:255 208:255 209:255 210:255 211:255 212:255 213:255 214:255 215:255 216:255 217:255 218:255 219:255 220:255 221:255 222:255 223:255 224:255 225:255 226:255 227:255 228:255 229:255 230:255 248:255 249:255 250:255 251:255 252:255 253:255 254:255 255:255 256:255 257:255 258:255 259:255 260:255 261:255 262:255 263:255 264:255 269:255 270:255 271:255 272:255 273:255 274:255 275:255 276:255 301:255 302:255 303:255 304:255 305:255 306:255 307:255 308:255 309:255 310:255 311:255 312:255 313:255 314:255 315:255 316:255 317:255 410:255 428:255 429:255 434:255 435:255 436:255 437:255 438:255 439:255 440:255 456:255 457:255 458:255 459:255 460:255 461:255 462:255 463:255 464:255 465:255 466:255 467:255 468:255 469:255 470:255 471:255 472:255 473:255 474:255 475:255 476:255 477:255 478:255 479:255 480:255 497:255 500:255 501:255 502:255 503:255 547:255 548:255 570:255 573:255 575:255 576:255 587:255 588:255 589:255 590:255 591:255 592:255 593:255 594:255 595:255 596:255 597:255 600:255 601:255 602:255 603:255 604:255 605:255 611:255 612:255 613:255 614:255 618:255 620:255 636:255 637:255 639:255 640:255 642:255 643:255 684:255 685:255 687:255 690:255 704:255 705:255 707:255 708:255 709:255 713:255 716:255 717:255 718:255 719:255 720:255 721:255 722:255 723:255 724:255 725:255 726:255 737:255 738:255 739:255 740:255 741:255 742:255 745:255 746:255 747:255 748:255 749:255 750:255 751:255 755:255 756:255 758:255 759:255 775:255 777:255 778:255 783:255 784:255 785:255 786:255 796:255 806:255 807:255 812:255 813:255 814:255 815:255 821:255 827:255 845:255 847:255 850:255 851:255 858:255 859:255 860:255 861:255 862:255 863:255 864:255 867:255 876:255 885:255 887:255 892:255 896:255 899:255 900:255 901:255 917:255 920:255 922:255 926:255 929:255 934:255 937:255 946:255 953:255 955:255 956:255 958:255 962:255 965:255 966:255 969:255 971:255 988:255 990:255 991:255 992:255 998:255 999:255 1000:255 1001:255 1002:255 1004:255 1007:255 1012:255 1013:255 1014:255 1015:255 1017:255 1019:255 1023:255 1028:255 1031:255 1034:255 1035:255 1039:255 1041:255 1047:255 1058:255 1060:255 1064:255 1066:255 1072:255 1074:255 1077:255 1082:255 1087:255 1093:255 1097:255 1098:255 1100:255 1101:255 1104:255 1109:255 1110:255 1111:255 1115:255 1116:255 1128:255 1131:255 1132:255 1133:255 1136:255 1139:255 1140:255 1141:255 1142:255 1144:255 1147:255 1152:255 1153:255 1154:255 1157:255 1159:255 1160:255 1161:255 1164:255 1166:255 1167:255 1170:255 1174:255 1177:255 1180:255 1181:255 1184:255 1185:255 1198:255 1201:255 1206:255 1209:255 1214:255 1217:255 1226:255 1229:255 1231:255 1234:255 1236:255 1239:255 1240:255 1243:255 1246:255 1248:255 1251:255 1254:255 1268:255 1270:255 1276:255 1279:255 1284:255 1287:255 1288:255 1289:255 1296:255 1299:255 1301:255 1304:255 1306:255 1309:255 1312:255 1313:255 1316:255 1317:255 1318:255 1321:255 1324:255 1336:255 1338:255 1340:255 1346:255 1349:255 1355:255 1360:255 1361:255 1362:255 1366:255 1367:255 1370:255 1373:255 1376:255 1379:255 1380:255 1381:255 1384:255 1390:255 1391:255 1394:255 1406:255 1410:255 1416:255 1417:255 1418:255 1425:255 1432:255 1437:255 1438:255 1439:255 1441:255 1442:255 1443:255 1444:255 1445:255 1446:255 1454:255 1455:255 1459:255 1460:255 1462:255 1464:255 1465:255 1466:255 1467:255 1471:255 1472:255 1473:255 1475:255 1479:255 1480:255 1495:255 1498:255 1499:255 1500:255 1503:255 1512:255 1517:255 1518:255 1519:255 1520:255 1521:255 1522:255 1526:255 1527:255 1528:255 1531:255 1534:255 1535:255 1538:255 1539:255 1540:255 1544:255 1545:255 1546:255 1548:255 1549:255 1564:255 1572:255 1574:255 1575:255 1576:255 1577:255 1582:255 1596:255 1598:255 1602:255 1604:255 1618:255 1622:255 1623:255 1624:255 1635:255 1645:255 1654:255 1655:255 1656:255 1666:255 1667:255 1668:255 1669:255 1672:255 1688:255 1689:255 1691:255 1692:255 1694:255 1706:255 1707:255 1708:255 1709:255 1710:255 1711:255 1712:255 1713:255 1726:255 1736:255 1739:255 1741:255 1742:255 1744:255 1756:255 1759:255 1761:255 1764:255 1765:255 1774:255 1795:255 1796:255 1805:255 1806:255 1809:255 1811:255 1814:255 1815:255 1816:255 1817:255 1818:255 1819:255 1820:255 1821:255 1822:255 1823:255 1824:255 1825:255 1830:255 1833:255 1836:255 1837:255 1838:255 1839:255 1840:255 1841:255 1842:255 1843:255 1845:255 1846:255 1847:255 1848:255 1849:255 1850:255 1851:255 1852:255 1853:255 1854:255 1855:255 1856:255 1857:255 1858:255 1859:255 1860:255 1861:255 1862:255 1863:255 1864:255 1865:255 1866:255 1867:255 1868:255 1869:255 1870:255 1871:255 1872:255 1873:255 1874:255 1877:255 1878:255 1880:255 1899:255 1900:255 1952:255 1953:255 1954:255 1955:255 1956:255 1957:255 1958:255 1959:255 1960:255 1961:255 1962:255 1963:255 1964:255 1965:255 1966:255 1967:255 1968:255 
9.67419276475036e-08 281:255 282:255 286:255 287:255 288:255 289:255 290:255 291:255 292:255 293:255 294:255 295:255 296:255 297:255 298:255 299:255 300:255 301:255 302:255 303:255 304:255 305:255 306:255 307:255 308:255 309:255 310:255 311:255 312:255 313:255 314:255 315:255 316:255 317:255 318:255 319:255 320:255 321:255 322:255 323:255 324:255 325:255 326:255 327:255 328:255 329:255 330:255 331:255 332:255 333:255 334:255 335:255 336:255 337:255 338:255 339:255 340:255 341:255 342:255 343:255 344:255 345:255 346:255 352:255 353:255 356:255 416:255 417:255 425:255 431:255 434:255 438:255 439:255 440:255 471:255 472:255 473:255 487:255 495:255 501:255 502:255 503:255 504:255 508:255 510:255 541:255 543:255 557:255 564:255 578:255 580:255 609:255 610:255 611:255 613:255 627:255 634:255 648:255 650:255 652:255 656:255 657:255 658:255 659:255 660:255 661:255 681:255 684:255 698:255 704:255 708:255 719:255 720:255 723:255 726:255 731:255 732:255 742:255 749:255 750:255 751:255 752:255 754:255 760:255 761:255 768:255 775:255 782:255 787:255 789:255 793:255 796:255 798:255 802:255 812:255 813:255 814:255 822:255 824:255 830:255 833:255 838:255 845:255 850:255 851:255 853:255 854:255 857:255 859:255 863:255 866:255 868:255 870:255 872:255 882:255 884:255 899:255 900:255 902:255 908:255 915:255 920:255 924:255 929:255 930:255 934:255 936:255 940:255 942:255 952:255 953:255 968:255 969:255 972:255 978:255 985:255 990:255 994:255 998:255 1000:255 1003:255 1004:255 1006:255 1008:255 1010:255 1013:255 1020:255 1024:255 1037:255 1038:255 1042:255 1043:255 1048:255 1055:255 1060:255 1064:255 1068:255 1069:255 1070:255 1071:255 1072:255 1074:255 1076:255 1078:255 1080:255 1081:255 1083:255 1090:255 1091:255 1094:255 1095:255 1107:255 1110:255 1111:255 1114:255 1118:255 1125:255 1130:255 1132:255 1133:255 1134:255 1135:255 1137:255 1139:255 1144:255 1146:255 1148:255 1151:255 1153:255 1160:255 1165:255 1177:255 1179:255 1182:255 1184:255 1188:255 1195:255 1200:255 1202:255 1203:255 1205:255 1207:255 1210:255 1212:255 1216:255 1218:255 1221:255 1223:255 1230:255 1231:255 1232:255 1233:255 1235:255 1247:255 1249:255 1252:255 1254:255 1258:255 1265:255 1270:255 1273:255 1275:255 1278:255 1280:255 1281:255 1284:255 1287:255 1289:255 1293:255 1303:255 1304:255 1305:255 1317:255 1320:255 1321:255 1324:255 1328:255 1336:255 1345:255 1348:255 1349:255 1352:255 1353:255 1354:255 1357:255 1358:255 1362:255 1363:255 1387:255 1388:255 1393:255 1399:255 1400:255 1401:255 1402:255 1403:255 1406:255 1420:255 1421:255 1429:255 1430:255 1467:255 1473:255 1476:255 1537:255 1542:255 1543:255 1546:255 1563:255 1564:255 1565:255 1607:255 1610:255 1611:255 1612:255 1616:255 1633:255 1635:255 1677:255 1680:255 1686:255 1703:255 1748:255 1756:255 1757:255 1817:255 1827:255 1828:255 1829:255 1840:255 1841:255 1842:255 1843:255 1844:255 1845:255 1846:255 1847:255 1848:255 1849:255 1850:255 1851:255 1852:255 1853:255 1854:255 1855:255 1856:255 1857:255 1858:255 1859:255 1860:255 1861:255 1862:255 1863:255 1864:255 1865:255 1866:255 1867:255 1868:255 1869:255 1870:255 1871:255 1872:255 1873:255 1874:255 1875:255 1876:255 1877:255 1878:255 1879:255 1880:255 1881:255 1882:255 1883:255 1884:255 1885:255 1886:255 1887:255 1900:255 1901:255 1902:255 1903:255 1904:255 1905:255 1906:255 1907:255 1908:255 1909:255 
1.95128582398879e-08 139:255 140:255 141:255 169:255 170:255 171:255 172:255 173:255 174:255 175:255 176:255 177:255 178:255 179:255 180:255 181:255 197:255 198:255 199:255 200:255 201:255 202:255 203:255 204:255 205:255 206:255 207:255 208:255 212:255 213:255 214:255 215:255 216:255 217:255 218:255 219:255 220:255 221:255 222:255 223:255 224:255 225:255 226:255 227:255 228:255 229:255 230:255 231:255 232:255 233:255 234:255 235:255 236:255 237:255 238:255 259:255 260:255 261:255 262:255 263:255 264:255 265:255 266:255 277:255 319:255 320:255 321:255 322:255 323:255 324:255 325:255 326:255 327:255 328:255 350:255 351:255 354:255 355:255 356:255 357:255 358:255 359:255 409:255 410:255 418:255 419:255 425:255 432:255 433:255 434:255 435:255 436:255 437:255 442:255 443:255 444:255 445:255 446:255 447:255 448:255 449:255 450:255 451:255 452:255 453:255 454:255 455:255 456:255 457:255 458:255 459:255 460:255 461:255 462:255 463:255 464:255 465:255 466:255 467:255 468:255 469:255 470:255 471:255 472:255 479:255 482:255 483:255 484:255 488:255 495:255 497:255 500:255 510:255 542:255 547:255 548:255 549:255 550:255 551:255 552:255 554:255 558:255 565:255 572:255 573:255 574:255 575:255 576:255 579:255 612:255 616:255 625:255 628:255 635:255 649:255 650:255 651:255 652:255 653:255 654:255 655:255 656:255 657:255 658:255 659:255 660:255 661:255 662:255 674:255 675:255 676:255 679:255 680:255 681:255 684:255 685:255 688:255 689:255 690:255 691:255 692:255 693:255 696:255 698:255 705:255 709:255 710:255 711:255 712:255 713:255 714:255 715:255 717:255 718:255 732:255 733:255 743:255 744:255 746:255 749:255 752:255 754:255 757:255 758:255 764:255 768:255 775:255 779:255 785:255 787:255 790:255 791:255 792:255 793:255 794:255 795:255 796:255 799:255 800:255 803:255 804:255 812:255 813:255 816:255 819:255 820:255 823:255 827:255 830:255 831:255 832:255 834:255 838:255 845:255 848:255 851:255 852:255 853:255 855:255 857:255 860:255 866:255 869:255 871:255 874:255 882:255 885:255 886:255 890:255 893:255 897:255 899:255 900:255 902:255 904:255 908:255 915:255 918:255 921:255 923:255 927:255 930:255 936:255 939:255 941:255 944:255 951:255 952:255 954:255 955:255 960:255 963:255 967:255 969:255 972:255 978:255 985:255 988:255 991:255 992:255 993:255 1000:255 1001:255 1002:255 1003:255 1006:255 1009:255 1010:255 1011:255 1013:255 1016:255 1017:255 1018:255 1019:255 1020:255 1021:255 1024:255 1030:255 1033:255 1037:255 1039:255 1042:255 1048:255 1055:255 1059:255 1061:255 1065:255 1067:255 1073:255 1076:255 1083:255 1090:255 1094:255 1095:255 1100:255 1103:255 1107:255 1109:255 1112:255 1118:255 1125:255 1129:255 1132:255 1133:255 1134:255 1135:255 1137:255 1142:255 1143:255 1146:255 1153:255 1155:255 1156:255 1157:255 1160:255 1166:255 1170:255 1173:255 1177:255 1179:255 1182:255 1188:255 1195:255 1199:255 1201:255 1202:255 1207:255 1210:255 1211:255 1212:255 1216:255 1219:255 1220:255 1223:255 1228:255 1229:255 1231:255 1232:255 1233:255 1234:255 1236:255 1240:255 1243:255 1247:255 1249:255 1252:255 1258:255 1265:255 1269:255 1271:255 1277:255 1280:255 1286:255 1289:255 1293:255 1299:255 1302:255 1304:255 1307:255 1310:255 1313:255 1317:255 1319:255 1320:255 1321:255 1322:255 1328:255 1335:255 1339:255 1341:255 1347:255 1350:255 1356:255 1359:255 1361:255 1363:255 1364:255 1369:255 1372:255 1373:255 1374:255 1376:255 1379:255 1380:255 1383:255 1384:255 1387:255 1390:255 1391:255 1394:255 1398:255 1405:255 1409:255 1411:255 1417:255 1420:255 1426:255 1429:255 1431:255 1434:255 1439:255 1440:255 1446:255 1449:255 1454:255 1457:255 1458:255 1463:255 1464:255 1468:255 1475:255 1479:255 1480:255 1481:255 1488:255 1489:255 1490:255 1497:255 1499:255 1501:255 1502:255 1503:255 1504:255 1510:255 1511:255 1512:255 1513:255 1514:255 1515:255 1516:255 1519:255 1520:255 1521:255 1523:255 1524:255 1525:255 1526:255 1528:255 1529:255 1530:255 1531:255 1532:255 1533:255 1535:255 1538:255 1545:255 1566:255 1569:255 1572:255 1592:255 1605:255 1608:255 1615:255 1618:255 1636:255 1637:255 1638:255 1639:255 1640:255 1641:255 1642:255 1643:255 1644:255 1645:255 1646:255 1647:255 1648:255 1649:255 1650:255 1651:255 1652:255 1653:255 1654:255 1655:255 1656:255 1657:255 1675:255 1678:255 1686:255 1688:255 1705:255 1727:255 1728:255 1739:255 1740:255 1741:255 1742:255 1746:255 1748:255 1756:255 1758:255 1762:255 1763:255 1764:255 1765:255 1776:255 1777:255 1787:255 1791:255 1792:255 1794:255 1798:255 1809:255 1812:255 1817:255 1827:255 1832:255 1835:255 1848:255 1849:255 1850:255 1851:255 1852:255 1853:255 1854:255 1855:255 1856:255 1857:255 1865:255 1866:255 1885:255 1886:255 1887:255 1897:255 1940:255 1941:255 1942:255 1943:255 1944:255 1945:255 1946:255 1947:255 1948:255 1949:255 1950:255 1951:255 1952:255 1953:255 1954:255 1967:255 1968:255 1969:255 1970:255 1971:255 1972:255 1973:255 1974:255 1975:255 1976:255 1977:255 1978:255 1979:255 1980:255 1981:255 1982:255 1983:255 1984:255 1985:255 1986:255 1987:255 1988:255 1989:255 1990:255 1991:255 1992:255 1993:255 1994:255 1995:255 1996:255 1997:255 1998:255 1999:255 2000:255 2001:255 2002:255 2003:255 2004:255 2005:255 2006:255 2007:255 2008:255 2009:255 
3.066869082366723e-08 8:255 9:255 16:255 17:255 18:255 19:255 40:255 43:255 48:255 71:255 72:255 73:255 74:255 75:255 76:255 77:255 80:255 81:255 82:255 83:255 84:255 85:255 90:255 91:255 92:255 93:255 94:255 95:255 96:255 97:255 98:255 99:255 100:255 101:255 102:255 103:255 104:255 105:255 106:255 107:255 108:255 109:255 111:255 112:255 114:255 115:255 116:255 117:255 126:255 127:255 128:255 129:255 130:255 131:255 132:255 133:255 134:255 157:255 158:255 159:255 190:255 191:255 192:255 193:255 194:255 204:255 205:255 226:255 227:255 229:255 230:255 260:255 264:255 296:255 300:255 329:255 330:255 331:255 332:255 333:255 334:255 366:255 367:255 368:255 369:255 370:255 399:255 429:255 443:255 444:255 445:255 446:255 447:255 448:255 449:255 450:255 451:255 452:255 453:255 454:255 455:255 456:255 457:255 458:255 459:255 460:255 461:255 462:255 463:255 464:255 465:255 466:255 467:255 468:255 474:255 475:255 476:255 479:255 480:255 481:255 499:255 501:255 504:255 505:255 506:255 511:255 538:255 542:255 543:255 546:255 547:255 549:255 552:255 569:255 571:255 572:255 574:255 577:255 580:255 581:255 582:255 584:255 589:255 600:255 601:255 602:255 607:255 608:255 609:255 612:255 617:255 619:255 622:255 640:255 641:255 642:255 643:255 644:255 645:255 648:255 654:255 657:255 658:255 660:255 661:255 668:255 669:255 673:255 674:255 675:255 676:255 677:255 682:255 687:255 689:255 690:255 692:255 709:255 715:255 716:255 717:255 724:255 727:255 731:255 732:255 738:255 744:255 749:255 753:255 756:255 757:255 760:255 762:255 779:255 781:255 782:255 783:255 788:255 790:255 791:255 792:255 793:255 796:255 797:255 798:255 801:255 808:255 814:255 816:255 817:255 818:255 820:255 823:255 826:255 830:255 832:255 849:255 851:255 854:255 856:255 858:255 860:255 865:255 868:255 871:255 878:255 884:255 890:255 893:255 895:255 900:255 902:255 919:255 921:255 922:255 923:255 926:255 928:255 930:255 931:255 932:255 938:255 941:255 944:255 945:255 946:255 948:255 954:255 959:255 960:255 962:255 965:255 970:255 972:255 989:255 995:255 996:255 998:255 1001:255 1008:255 1011:255 1014:255 1018:255 1025:255 1028:255 1029:255 1032:255 1035:255 1040:255 1042:255 1059:255 1064:255 1065:255 1067:255 1071:255 1072:255 1078:255 1081:255 1084:255 1085:255 1088:255 1090:255 1091:255 1092:255 1095:255 1098:255 1101:255 1104:255 1110:255 1111:255 1113:255 1129:255 1132:255 1133:255 1137:255 1140:255 1141:255 1148:255 1151:255 1155:255 1156:255 1158:255 1160:255 1163:255 1165:255 1167:255 1168:255 1175:255 1181:255 1183:255 1199:255 1202:255 1207:255 1210:255 1218:255 1221:255 1228:255 1230:255 1231:255 1232:255 1235:255 1237:255 1240:255 1241:255 1246:255 1247:255 1250:255 1251:255 1253:255 1256:255 1257:255 1258:255 1259:255 1260:255 1269:255 1272:255 1278:255 1280:255 1288:255 1291:255 1292:255 1298:255 1304:255 1307:255 1312:255 1313:255 1317:255 1318:255 1320:255 1323:255 1324:255 1325:255 1331:255 1332:255 1333:255 1334:255 1335:255 1336:255 1342:255 1348:255 1350:255 1357:255 1358:255 1362:255 1363:255 1368:255 1369:255 1370:255 1373:255 1374:255 1376:255 1377:255 1383:255 1388:255 1389:255 1390:255 1393:255 1406:255 1407:255 1411:255 1413:255 1414:255 1415:255 1420:255 1421:255 1422:255 1423:255 1424:255 1427:255 1429:255 1430:255 1431:255 1433:255 1440:255 1441:255 1442:255 1448:255 1449:255 1450:255 1451:255 1452:255 1453:255 1463:255 1477:255 1478:255 1480:255 1481:255 1486:255 1488:255 1496:255 1497:255 1504:255 1505:255 1506:255 1513:255 1514:255 1515:255 1533:255 1535:255 1536:255 1537:255 1538:255 1539:255 1540:255 1541:255 1542:255 1543:255 1549:255 1558:255 1559:255 1560:255 1566:255 1573:255 1576:255 1580:255 1581:255 1585:255 1586:255 1596:255 1597:255 1598:255 1599:255 1603:255 1619:255 1635:255 1646:255 1656:255 1666:255 1673:255 1675:255 1676:255 1677:255 1678:255 1679:255 1680:255 1681:255 1682:255 1683:255 1687:255 1688:255 1689:255 1705:255 1726:255 1727:255 1742:255 1743:255 1744:255 1754:255 1755:255 1756:255 1759:255 1760:255 1761:255 1762:255 1763:255 1764:255 1765:255 1766:255 1767:255 1768:255 1769:255 1770:255 1771:255 1772:255 1773:255 1774:255 1775:255 1776:255 1777:255 1778:255 1779:255 1780:255 1781:255 1782:255 1783:255 1784:255 1785:255 1786:255 1787:255 1788:255 1789:255 1790:255 1791:255 1792:255 1793:255 1794:255 1795:255 1798:255 1799:255 1800:255 1801:255 1802:255 1803:255 1804:255 1805:255 1806:255 1807:255 1808:255 1809:255 1810:255 1811:255 1812:255 1961:255 1962:255 1963:255 2015:255 2019:255 2020:255 2021:255 2022:255 2023:255 2024:255 2025:255 2026:255 2027:255 2028:255 2029:255 2030:255 2034:255 2035:255 2036:255 2037:255 2038:255 2039:255 2040:255 2041:255 2042:255 2043:255 2079:255 2080:255 2081:255 2082:255 2083:255 2084:255 2086:255 2087:255 2088:255 
1.462814560759484e-09 286:255 287:255 288:255 289:255 290:255 291:255 292:255 293:255 294:255 295:255 296:255 297:255 298:255 299:255 300:255 301:255 302:255 303:255 304:255 305:255 306:255 307:255 308:255 309:255 310:255 311:255 312:255 313:255 314:255 315:255 316:255 317:255 318:255 319:255 320:255 321:255 322:255 323:255 324:255 325:255 326:255 327:255 328:255 329:255 330:255 331:255 332:255 333:255 334:255 335:255 336:255 337:255 338:255 339:255 340:255 341:255 342:255 343:255 344:255 345:255 356:255 415:255 427:255 431:255 432:255 433:255 434:255 477:255 478:255 479:255 485:255 497:255 504:255 506:255 507:255 508:255 509:255 510:255 511:255 512:255 513:255 514:255 515:255 516:255 517:255 518:255 519:255 520:255 521:255 522:255 523:255 524:255 525:255 526:255 527:255 528:255 529:255 530:255 531:255 532:255 533:255 534:255 535:255 536:255 537:255 538:255 539:255 540:255 541:255 542:255 543:255 544:255 546:255 550:255 551:255 552:255 553:255 555:255 567:255 571:255 575:255 616:255 617:255 620:255 623:255 637:255 639:255 640:255 641:255 642:255 643:255 645:255 646:255 679:255 680:255 681:255 682:255 683:255 687:255 688:255 690:255 694:255 707:255 711:255 715:255 723:255 724:255 725:255 726:255 727:255 728:255 729:255 730:255 731:255 732:255 733:255 741:255 742:255 743:255 744:255 747:255 748:255 754:255 758:255 759:255 760:255 761:255 764:255 778:255 780:255 781:255 783:255 785:255 786:255 793:255 795:255 797:255 803:255 804:255 811:255 814:255 817:255 820:255 821:255 822:255 823:255 824:255 828:255 831:255 834:255 848:255 851:255 854:255 855:255 863:255 869:255 870:255 871:255 874:255 880:255 884:255 887:255 890:255 898:255 901:255 904:255 918:255 922:255 924:255 933:255 939:255 941:255 944:255 950:255 954:255 957:255 960:255 967:255 971:255 974:255 988:255 992:255 994:255 1003:255 1009:255 1012:255 1014:255 1015:255 1016:255 1017:255 1018:255 1019:255 1020:255 1024:255 1027:255 1030:255 1031:255 1032:255 1033:255 1034:255 1037:255 1042:255 1044:255 1058:255 1062:255 1064:255 1073:255 1079:255 1082:255 1084:255 1089:255 1094:255 1098:255 1104:255 1106:255 1107:255 1112:255 1114:255 1128:255 1132:255 1135:255 1138:255 1139:255 1140:255 1143:255 1149:255 1152:255 1155:255 1156:255 1157:255 1159:255 1165:255 1168:255 1169:255 1170:255 1171:255 1172:255 1174:255 1175:255 1176:255 1182:255 1184:255 1198:255 1202:255 1205:255 1208:255 1210:255 1211:255 1213:255 1219:255 1221:255 1225:255 1228:255 1229:255 1235:255 1242:255 1252:255 1256:255 1269:255 1272:255 1275:255 1278:255 1281:255 1282:255 1283:255 1289:255 1290:255 1291:255 1294:255 1299:255 1300:255 1301:255 1302:255 1305:255 1309:255 1310:255 1311:255 1312:255 1315:255 1316:255 1317:255 1318:255 1319:255 1322:255 1325:255 1339:255 1342:255 1345:255 1348:255 1349:255 1355:255 1356:255 1357:255 1364:255 1372:255 1373:255 1375:255 1384:255 1385:255 1389:255 1390:255 1392:255 1394:255 1395:255 1409:255 1412:255 1413:255 1414:255 1415:255 1419:255 1420:255 1421:255 1423:255 1424:255 1425:255 1428:255 1429:255 1430:255 1431:255 1432:255 1433:255 1434:255 1443:255 1445:255 1448:255 1449:255 1450:255 1453:255 1454:255 1460:255 1461:255 1462:255 1464:255 1479:255 1489:255 1491:255 1530:255 1534:255 1549:255 1556:255 1557:255 1559:255 1560:255 1561:255 1562:255 1563:255 1564:255 1565:255 1566:255 1567:255 1568:255 1569:255 1570:255 1571:255 1572:255 1573:255 1574:255 1575:255 1576:255 1577:255 1578:255 1579:255 1580:255 1581:255 1582:255 1583:255 1584:255 1585:255 1586:255 1587:255 1588:255 1589:255 1590:255 1594:255 1595:255 1605:255 1619:255 1624:255 1625:255 1626:255 1629:255 1665:255 1669:255 1670:255 1671:255 1674:255 1694:255 1696:255 1699:255 1700:255 1701:255 1702:255 1703:255 1704:255 1705:255 1706:255 1707:255 1708:255 1709:255 1710:255 1711:255 1712:255 1713:255 1714:255 1715:255 1716:255 1717:255 1718:255 1719:255 1720:255 1721:255 1722:255 1723:255 1724:255 1725:255 1726:255 1727:255 1728:255 1729:255 1730:255 1731:255 1732:255 1733:255 1734:255 1741:255 1744:255 1746:255 1759:255 1760:255 1761:255 1814:255 1816:255 1832:255 1833:255 1834:255 1835:255 1836:255 1837:255 1838:255 1839:255 1840:255 1841:255 1842:255 1843:255 1844:255 1845:255 1846:255 1847:255 1848:255 1849:255 1850:255 1851:255 1852:255 1853:255 1854:255 1855:255 1856:255 1857:255 1858:255 1859:255 1860:255 1861:255 1862:255 1863:255 1864:255 1865:255 1866:255 1867:255 1868:255 1869:255 1870:255 1871:255 1872:255 1873:255 1874:255 1875:255 1876:255 1877:255 1878:255 1879:255 1880:255 1881:255 1882:255 1883:255 
3.062281780830892e-08 231:255 288:255 289:255 290:255 297:255 298:255 299:255 300:255 302:255 303:255 304:255 305:255 306:255 307:255 308:255 309:255 310:255 311:255 312:255 315:255 316:255 317:255 318:255 321:255 322:255 328:255 329:255 330:255 331:255 356:255 357:255 362:255 363:255 364:255 365:255 383:255 384:255 389:255 390:255 393:255 394:255 395:255 396:255 397:255 402:255 403:255 426:255 432:255 435:255 438:255 443:255 444:255 445:255 476:255 477:255 480:255 481:255 482:255 483:255 484:255 496:255 498:255 501:255 505:255 509:255 510:255 511:255 512:255 517:255 518:255 519:255 520:255 521:255 522:255 523:255 524:255 525:255 527:255 528:255 529:255 530:255 531:255 532:255 533:255 534:255 535:255 536:255 537:255 538:255 539:255 540:255 541:255 542:255 543:255 546:255 548:255 554:255 555:255 566:255 568:255 571:255 575:255 612:255 615:255 619:255 625:255 636:255 638:255 640:255 641:255 646:255 653:255 654:255 655:255 656:255 657:255 661:255 662:255 663:255 670:255 671:255 672:255 685:255 689:255 690:255 692:255 695:255 706:255 709:255 710:255 713:255 714:255 715:255 723:255 727:255 728:255 731:255 733:255 738:255 739:255 743:255 744:255 747:255 748:255 749:255 750:255 751:255 752:255 756:255 760:255 761:255 762:255 765:255 766:255 776:255 780:255 782:255 783:255 792:255 798:255 801:255 803:255 808:255 810:255 811:255 812:255 814:255 815:255 816:255 817:255 822:255 826:255 827:255 828:255 831:255 835:255 846:255 850:255 853:255 863:255 868:255 871:255 873:255 877:255 880:255 882:255 885:255 887:255 890:255 892:255 898:255 901:255 902:255 903:255 905:255 916:255 920:255 924:255 925:255 933:255 938:255 941:255 944:255 947:255 950:255 953:255 955:255 957:255 958:255 963:255 968:255 971:255 975:255 986:255 991:255 992:255 995:255 996:255 1003:255 1008:255 1011:255 1014:255 1018:255 1020:255 1023:255 1025:255 1027:255 1033:255 1038:255 1040:255 1042:255 1043:255 1045:255 1057:255 1063:255 1066:255 1067:255 1068:255 1069:255 1070:255 1071:255 1073:255 1078:255 1081:255 1084:255 1088:255 1090:255 1093:255 1095:255 1099:255 1100:255 1101:255 1103:255 1108:255 1110:255 1115:255 1127:255 1130:255 1131:255 1132:255 1134:255 1141:255 1143:255 1149:255 1151:255 1154:255 1158:255 1160:255 1163:255 1165:255 1169:255 1171:255 1173:255 1178:255 1180:255 1185:255 1197:255 1206:255 1207:255 1208:255 1212:255 1215:255 1219:255 1220:255 1221:255 1224:255 1228:255 1231:255 1232:255 1233:255 1235:255 1239:255 1241:255 1243:255 1247:255 1250:255 1252:255 1253:255 1255:255 1267:255 1270:255 1271:255 1272:255 1274:255 1275:255 1276:255 1279:255 1280:255 1284:255 1285:255 1286:255 1287:255 1288:255 1291:255 1293:255 1298:255 1299:255 1305:255 1306:255 1307:255 1310:255 1313:255 1318:255 1320:255 1323:255 1325:255 1337:255 1338:255 1339:255 1340:255 1343:255 1350:255 1351:255 1352:255 1359:255 1360:255 1361:255 1362:255 1363:255 1369:255 1370:255 1371:255 1372:255 1373:255 1374:255 1375:255 1377:255 1378:255 1382:255 1383:255 1388:255 1389:255 1390:255 1393:255 1395:255 1410:255 1419:255 1420:255 1424:255 1425:255 1426:255 1427:255 1434:255 1435:255 1436:255 1463:255 1465:255 1471:255 1472:255 1473:255 1474:255 1475:255 1476:255 1489:255 1492:255 1499:255 1500:255 1501:255 1502:255 1507:255 1508:255 1509:255 1510:255 1511:255 1512:255 1513:255 1514:255 1515:255 1516:255 1517:255 1518:255 1519:255 1520:255 1521:255 1522:255 1523:255 1524:255 1525:255 1533:255 1535:255 1547:255 1548:255 1549:255 1550:255 1551:255 1552:255 1553:255 1554:255 1555:255 1556:255 1557:255 1594:255 1597:255 1599:255 1603:255 1628:255 1629:255 1630:255 1631:255 1632:255 1667:255 1669:255 1670:255 1676:255 1677:255 1678:255 1679:255 1680:255 1703:255 1704:255 1705:255 1706:255 1707:255 1708:255 1709:255 1710:255 1711:255 1734:255 1735:255 1736:255 1737:255 1738:255 1740:255 1741:255 1742:255 1743:255 1744:255 1745:255 1782:255 1783:255 1784:255 1785:255 1786:255 1787:255 1788:255 1789:255 1790:255 1791:255 1792:255 1793:255 1794:255 1795:255 1796:255 1797:255 1798:255 1799:255 1800:255 1801:255 1802:255 1803:255 
5.286647085993815e-08 203:255 204:255 205:255 206:255 207:255 208:255 209:255 210:255 211:255 212:255 213:255 214:255 215:255 216:255 217:255 218:255 219:255 220:255 221:255 222:255 223:255 224:255 225:255 226:255 227:255 244:255 245:255 246:255 247:255 248:255 249:255 250:255 251:255 252:255 253:255 254:255 255:255 256:255 257:255 258:255 259:255 260:255 261:255 262:255 263:255 264:255 265:255 266:255 267:255 268:255 269:255 270:255 271:255 272:255 298:255 299:255 300:255 301:255 302:255 303:255 304:255 305:255 306:255 307:255 308:255 309:255 310:255 311:255 312:255 313:255 351:255 352:255 395:255 396:255 397:255 398:255 399:255 400:255 401:255 402:255 403:255 404:255 405:255 406:255 407:255 408:255 409:255 410:255 411:255 554:255 555:255 556:255 557:255 607:255 608:255 609:255 610:255 611:255 612:255 613:255 614:255 615:255 622:255 623:255 624:255 630:255 637:255 653:255 661:255 663:255 664:255 665:255 666:255 667:255 668:255 669:255 670:255 671:255 672:255 673:255 674:255 675:255 676:255 686:255 687:255 691:255 692:255 697:255 698:255 699:255 701:255 702:255 703:255 704:255 705:255 708:255 709:255 710:255 713:255 715:255 716:255 717:255 718:255 719:255 720:255 721:255 722:255 724:255 725:255 726:255 727:255 728:255 729:255 730:255 732:255 757:255 761:255 767:255 775:255 778:255 780:255 781:255 784:255 785:255 828:255 829:255 830:255 831:255 832:255 833:255 834:255 835:255 838:255 844:255 846:255 851:255 854:255 859:255 860:255 861:255 870:255 871:255 881:255 882:255 883:255 884:255 885:255 886:255 898:255 901:255 904:255 908:255 909:255 910:255 911:255 912:255 913:255 914:255 915:255 916:255 919:255 920:255 921:255 924:255 925:255 926:255 932:255 933:255 934:255 935:255 937:255 938:255 942:255 943:255 949:255 950:255 951:255 961:255 962:255 963:255 964:255 968:255 970:255 971:255 972:255 973:255 974:255 975:255 989:255 995:255 999:255 1000:255 1002:255 1004:255 1007:255 1009:255 1010:255 1013:255 1014:255 1019:255 1022:255 1023:255 1024:255 1025:255 1026:255 1031:255 1034:255 1038:255 1040:255 1059:255 1061:255 1062:255 1063:255 1064:255 1065:255 1066:255 1067:255 1072:255 1074:255 1075:255 1076:255 1077:255 1079:255 1081:255 1084:255 1089:255 1092:255 1100:255 1101:255 1104:255 1108:255 1110:255 1111:255 1112:255 1113:255 1114:255 1118:255 1119:255 1120:255 1121:255 1122:255 1123:255 1124:255 1125:255 1126:255 1128:255 1129:255 1132:255 1141:255 1143:255 1144:255 1147:255 1149:255 1150:255 1151:255 1154:255 1156:255 1157:255 1159:255 1162:255 1163:255 1164:255 1165:255 1170:255 1174:255 1178:255 1180:255 1185:255 1188:255 1196:255 1199:255 1200:255 1204:255 1205:255 1210:255 1211:255 1213:255 1217:255 1219:255 1223:255 1224:255 1226:255 1229:255 1230:255 1232:255 1236:255 1237:255 1238:255 1239:255 1240:255 1244:255 1245:255 1248:255 1249:255 1250:255 1251:255 1252:255 1253:255 1255:255 1258:255 1266:255 1270:255 1271:255 1272:255 1275:255 1276:255 1280:255 1283:255 1287:255 1289:255 1290:255 1291:255 1292:255 1295:255 1296:255 1297:255 1298:255 1301:255 1303:255 1304:255 1307:255 1310:255 1315:255 1323:255 1325:255 1328:255 1337:255 1344:255 1346:255 1349:255 1350:255 1352:255 1357:255 1359:255 1374:255 1375:255 1377:255 1379:255 1380:255 1381:255 1382:255 1385:255 1389:255 1390:255 1391:255 1392:255 1395:255 1398:255 1407:255 1410:255 1411:255 1412:255 1413:255 1414:255 1416:255 1419:255 1422:255 1423:255 1424:255 1425:255 1426:255 1427:255 1429:255 1443:255 1447:255 1448:255 1452:255 1453:255 1454:255 1455:255 1459:255 1464:255 1465:255 1468:255 1477:255 1486:255 1489:255 1499:255 1510:255 1511:255 1515:255 1516:255 1517:255 1529:255 1530:255 1531:255 1532:255 1533:255 1538:255 1547:255 1551:255 1552:255 1553:255 1554:255 1555:255 1556:255 1559:255 1560:255 1561:255 1562:255 1563:255 1564:255 1565:255 1566:255 1567:255 1568:255 1569:255 1583:255 1584:255 1608:255 1617:255 1641:255 1642:255 1643:255 1644:255 1645:255 1646:255 1647:255 1648:255 1649:255 1650:255 1655:255 1678:255 1687:255 1710:255 1714:255 1719:255 1725:255 1747:255 1748:255 1758:255 1780:255 1809:255 1810:255 1811:255 1812:255 1813:255 1814:255 1815:255 1816:255 1817:255 1828:255 1829:255 1830:255 1831:255 1832:255 1833:255 1834:255 1835:255 1836:255 1837:255 1838:255 1839:255 1840:255 1841:255 1842:255 1843:255 1844:255 1845:255 1846:255 1847:255 1848:255 1849:255 1850:255 1851:255 1852:255 1853:255 1854:255 1855:255 1856:255 1857:255 1858:255 1859:255 1860:255 1861:255 1862:255 1863:255 1864:255 1865:255 1866:255 1867:255 1868:255 1869:255 1870:255 1871:255 1872:255 1873:255 1874:255 1875:255 1876:255 1877:255 1878:255 1953:255 1954:255 1955:255 1956:255 1957:255 1958:255 1959:255 1960:255 1961:255 1962:255 1963:255 1964:255 1965:255 1966:255 1967:255 1968:255 1969:255 1970:255 1971:255 1972:255 1973:255 1974:255 1975:255 1976:255 1995:255 1996:255 1997:255 1998:255 1999:255 2000:255 2001:255 2002:255 2003:255 2004:255 2005:255 2006:255 2007:255 2008:255 2009:255 2010:255 2011:255 2012:255 2013:255 2014:255 2015:255 2016:255 2017:255 2018:255 2019:255 2020:255 2021:255 2022:255 2100:255 
4.901677537907412e-08 148:255 149:255 150:255 151:255 152:255 153:255 159:255 160:255 161:255 162:255 164:255 165:255 166:255 167:255 168:255 169:255 170:255 180:255 181:255 182:255 183:255 184:255 185:255 186:255 187:255 188:255 189:255 190:255 191:255 192:255 194:255 198:255 199:255 200:255 201:255 202:255 203:255 204:255 209:255 210:255 211:255 212:255 213:255 214:255 215:255 216:255 217:255 224:255 225:255 226:255 227:255 228:255 233:255 241:255 242:255 243:255 244:255 245:255 246:255 247:255 248:255 249:255 263:255 265:255 266:255 267:255 275:255 276:255 277:255 332:255 336:255 358:255 363:255 403:255 404:255 405:255 406:255 411:255 415:255 416:255 417:255 418:255 419:255 420:255 421:255 422:255 423:255 424:255 425:255 429:255 430:255 431:255 432:255 433:255 434:255 435:255 441:255 442:255 460:255 461:255 462:255 463:255 464:255 468:255 469:255 470:255 471:255 477:255 480:255 485:255 506:255 508:255 509:255 510:255 513:255 514:255 515:255 516:255 517:255 518:255 521:255 522:255 523:255 528:255 529:255 535:255 541:255 548:255 550:255 554:255 561:255 562:255 563:255 564:255 565:255 566:255 567:255 571:255 572:255 573:255 576:255 578:255 584:255 586:255 588:255 589:255 591:255 593:255 598:255 601:255 602:255 603:255 605:255 606:255 608:255 609:255 611:255 617:255 618:255 621:255 624:255 637:255 638:255 639:255 640:255 643:255 646:255 648:255 650:255 651:255 652:255 656:255 659:255 660:255 661:255 664:255 668:255 671:255 673:255 676:255 679:255 681:255 687:255 691:255 695:255 708:255 713:255 716:255 718:255 720:255 726:255 729:255 731:255 734:255 738:255 741:255 743:255 746:255 749:255 752:255 756:255 761:255 765:255 779:255 783:255 785:255 786:255 788:255 790:255 791:255 792:255 794:255 796:255 804:255 808:255 811:255 814:255 816:255 819:255 822:255 826:255 831:255 834:255 849:255 852:255 855:255 858:255 860:255 864:255 866:255 874:255 878:255 881:255 884:255 886:255 889:255 892:255 896:255 901:255 905:255 918:255 919:255 921:255 922:255 924:255 928:255 930:255 932:255 934:255 937:255 944:255 948:255 951:255 954:255 956:255 959:255 962:255 965:255 971:255 972:255 975:255 978:255 979:255 980:255 981:255 982:255 983:255 984:255 985:255 986:255 987:255 991:255 994:255 998:255 1000:255 1001:255 1002:255 1004:255 1007:255 1014:255 1018:255 1021:255 1023:255 1026:255 1029:255 1032:255 1036:255 1037:255 1042:255 1046:255 1047:255 1061:255 1064:255 1067:255 1068:255 1070:255 1072:255 1075:255 1077:255 1080:255 1084:255 1089:255 1091:255 1092:255 1093:255 1096:255 1099:255 1102:255 1103:255 1108:255 1109:255 1110:255 1111:255 1112:255 1113:255 1114:255 1116:255 1121:255 1122:255 1123:255 1124:255 1125:255 1126:255 1127:255 1131:255 1134:255 1135:255 1136:255 1140:255 1143:255 1145:255 1147:255 1149:255 1150:255 1151:255 1152:255 1154:255 1159:255 1165:255 1166:255 1169:255 1172:255 1179:255 1181:255 1184:255 1186:255 1187:255 1188:255 1189:255 1190:255 1198:255 1201:255 1210:255 1213:255 1214:255 1215:255 1217:255 1218:255 1219:255 1222:255 1223:255 1224:255 1230:255 1231:255 1232:255 1233:255 1234:255 1235:255 1239:255 1240:255 1241:255 1242:255 1249:255 1254:255 1255:255 1268:255 1272:255 1273:255 1274:255 1275:255 1276:255 1277:255 1278:255 1279:255 1292:255 1295:255 1298:255 1324:255 1339:255 1352:255 1353:255 1354:255 1355:255 1356:255 1357:255 1358:255 1359:255 1362:255 1363:255 1364:255 1365:255 1368:255 1369:255 1370:255 1371:255 1372:255 1373:255 1374:255 1375:255 1376:255 1377:255 1378:255 1379:255 1380:255 1388:255 1389:255 1394:255 1409:255 1413:255 1414:255 1415:255 1416:255 1421:255 1427:255 1429:255 1432:255 1435:255 1438:255 1442:255 1458:255 1460:255 1464:255 1479:255 1480:255 1481:255 1483:255 1486:255 1491:255 1499:255 1512:255 1533:255 1534:255 1536:255 1541:255 1542:255 1543:255 1544:255 1551:255 1552:255 1553:255 1556:255 1557:255 1558:255 1559:255 1560:255 1561:255 1562:255 1563:255 1564:255 1565:255 1566:255 1567:255 1568:255 1569:255 1570:255 1571:255 1572:255 1573:255 1574:255 1575:255 1576:255 1586:255 1587:255 1588:255 1589:255 1590:255 1591:255 1592:255 1593:255 1594:255 1595:255 1596:255 1597:255 1598:255 1599:255 1600:255 1601:255 1602:255 1615:255 1616:255 1617:255 1647:255 1648:255 1649:255 1650:255 1651:255 1652:255 1653:255 1654:255 1655:255 1679:255 1680:255 1688:255 1689:255 1690:255 1691:255 1745:255 1746:255 1747:255 1748:255 1762:255 1763:255 1764:255 1765:255 1766:255 1767:255 1768:255 1769:255 1770:255 1792:255 1793:255 1794:255 1795:255 1796:255 1797:255 1798:255 1799:255 1800:255 1801:255 1802:255 1803:255 1804:255 1805:255 1806:255 1807:255 1808:255 1809:255 1810:255 1811:255 1812:255 1813:255 1814:255 1841:255 1842:255 1843:255 1844:255 1845:255 1846:255 1847:255 1848:255 1849:255 1850:255 1851:255 1852:255 1853:255 1854:255 1855:255 1856:255 1857:255 1858:255 1859:255 1860:255 1861:255 1961:255 1962:255 1963:255 1964:255 1965:255 1966:255 1967:255 1968:255 1969:255 1970:255 1971:255 1972:255 1973:255 1974:255 1975:255 1976:255 1977:255 1978:255 1979:255 1980:255 1981:255 1982:255 1983:255 1984:255 1985:255 1986:255 1987:255 1988:255 1989:255 1990:255 1991:255 1992:255 1993:255 1994:255 1995:255 1996:255 1997:255 2001:255 2002:255 2003:255 2004:255 2005:255 2006:255 2007:255 2008:255 2009:255 2010:255 2011:255 2012:255 2013:255 2014:255 2015:255 2016:255 2017:255 2018:255 2019:255 2020:255 2021:255 2022:255 2023:255 2024:255 2025:255 2026:255 2027:255 2028:255 2029:255 2030:255 2068:255 2069:255 2070:255 
1.677811487512966e-08 56:255 57:255 62:255 63:255 116:255 117:255 118:255 119:255 120:255 121:255 122:255 123:255 124:255 125:255 126:255 128:255 133:255 180:255 181:255 182:255 183:255 184:255 185:255 199:255 200:255 201:255 204:255 243:255 244:255 245:255 246:255 247:255 248:255 249:255 257:255 258:255 259:255 260:255 261:255 262:255 263:255 264:255 265:255 268:255 271:255 274:255 305:255 306:255 307:255 308:255 309:255 310:255 311:255 312:255 320:255 321:255 322:255 323:255 324:255 325:255 326:255 335:255 338:255 339:255 344:255 368:255 369:255 370:255 371:255 372:255 373:255 374:255 384:255 385:255 386:255 387:255 388:255 389:255 405:255 409:255 410:255 414:255 433:255 434:255 435:255 436:255 437:255 446:255 447:255 448:255 449:255 450:255 451:255 452:255 468:255 469:255 470:255 471:255 474:255 480:255 484:255 495:255 496:255 497:255 498:255 499:255 500:255 501:255 502:255 509:255 510:255 511:255 512:255 513:255 514:255 528:255 529:255 530:255 531:255 532:255 533:255 538:255 541:255 544:255 550:255 552:255 554:255 565:255 569:255 574:255 575:255 576:255 577:255 578:255 598:255 603:255 607:255 611:255 614:255 616:255 620:255 635:255 638:255 639:255 640:255 643:255 652:255 653:255 654:255 655:255 656:255 657:255 660:255 661:255 662:255 668:255 671:255 673:255 677:255 681:255 684:255 690:255 691:255 696:255 697:255 698:255 699:255 700:255 705:255 707:255 710:255 713:255 714:255 715:255 716:255 717:255 718:255 719:255 722:255 725:255 727:255 728:255 730:255 733:255 737:255 741:255 742:255 743:255 746:255 747:255 751:255 754:255 756:255 757:255 758:255 761:255 762:255 763:255 764:255 765:255 775:255 777:255 779:255 780:255 785:255 789:255 792:255 798:255 800:255 803:255 807:255 811:255 813:255 816:255 821:255 823:255 824:255 826:255 828:255 831:255 833:255 845:255 849:255 850:255 851:255 852:255 857:255 859:255 862:255 866:255 868:255 870:255 873:255 874:255 875:255 876:255 877:255 884:255 885:255 886:255 888:255 889:255 891:255 892:255 894:255 896:255 898:255 901:255 903:255 915:255 919:255 925:255 927:255 929:255 932:255 934:255 936:255 940:255 945:255 947:255 949:255 950:255 951:255 956:255 961:255 964:255 966:255 967:255 970:255 971:255 973:255 985:255 989:255 995:255 997:255 999:255 1000:255 1001:255 1002:255 1004:255 1006:255 1007:255 1013:255 1014:255 1015:255 1017:255 1019:255 1022:255 1024:255 1026:255 1027:255 1028:255 1031:255 1032:255 1033:255 1034:255 1039:255 1040:255 1043:255 1055:255 1059:255 1065:255 1067:255 1069:255 1072:255 1074:255 1078:255 1083:255 1087:255 1089:255 1090:255 1091:255 1094:255 1095:255 1098:255 1099:255 1100:255 1101:255 1104:255 1105:255 1106:255 1107:255 1108:255 1109:255 1113:255 1125:255 1127:255 1129:255 1135:255 1137:255 1140:255 1142:255 1144:255 1147:255 1149:255 1153:255 1157:255 1163:255 1164:255 1183:255 1195:255 1197:255 1199:255 1205:255 1207:255 1209:255 1210:255 1212:255 1214:255 1217:255 1219:255 1220:255 1223:255 1227:255 1228:255 1229:255 1231:255 1232:255 1233:255 1252:255 1265:255 1267:255 1269:255 1275:255 1276:255 1277:255 1279:255 1282:255 1284:255 1287:255 1290:255 1291:255 1292:255 1302:255 1305:255 1322:255 1331:255 1332:255 1333:255 1334:255 1335:255 1336:255 1337:255 1339:255 1345:255 1347:255 1349:255 1352:255 1354:255 1355:255 1356:255 1357:255 1366:255 1367:255 1368:255 1372:255 1373:255 1374:255 1375:255 1390:255 1391:255 1392:255 1407:255 1409:255 1410:255 1414:255 1415:255 1417:255 1418:255 1419:255 1423:255 1427:255 1428:255 1429:255 1430:255 1431:255 1432:255 1433:255 1434:255 1435:255 1442:255 1446:255 1454:255 1455:255 1456:255 1457:255 1458:255 1459:255 1477:255 1480:255 1481:255 1482:255 1483:255 1486:255 1505:255 1517:255 1518:255 1519:255 1520:255 1521:255 1522:255 1523:255 1547:255 1564:255 1566:255 1571:255 1575:255 1582:255 1583:255 1584:255 1585:255 1586:255 1617:255 1645:255 1646:255 1647:255 1648:255 1649:255 1650:255 1651:255 1687:255 1691:255 1692:255 1693:255 1694:255 1708:255 1709:255 1710:255 1711:255 1712:255 1713:255 1714:255 1757:255 1761:255 1769:255 1770:255 1771:255 1772:255 1773:255 1774:255 1775:255 1776:255 1777:255 1827:255 1834:255 1835:255 1836:255 1837:255 1838:255 1897:255 1898:255 1899:255 1900:255 1901:255 1902:255 1903:255 1959:255 1960:255 2025:255 2026:255 2027:255 2028:255 2089:255 2090:255 2091:255 2092:255 2093:255 2094:255 
6.559850019469887e-09 48:255 49:255 54:255 56:255 57:255 62:255 63:255 71:255 72:255 73:255 74:255 75:255 76:255 77:255 78:255 79:255 80:255 81:255 82:255 83:255 84:255 85:255 86:255 87:255 88:255 89:255 90:255 91:255 92:255 93:255 94:255 95:255 96:255 97:255 98:255 99:255 100:255 101:255 102:255 103:255 104:255 105:255 106:255 107:255 108:255 109:255 110:255 111:255 112:255 113:255 114:255 115:255 116:255 117:255 120:255 121:255 122:255 123:255 125:255 128:255 129:255 130:255 131:255 134:255 135:255 287:255 288:255 289:255 290:255 291:255 292:255 293:255 294:255 295:255 296:255 297:255 298:255 299:255 300:255 301:255 302:255 303:255 304:255 305:255 306:255 307:255 308:255 309:255 310:255 311:255 312:255 313:255 314:255 315:255 316:255 317:255 318:255 319:255 320:255 321:255 322:255 323:255 324:255 325:255 326:255 327:255 328:255 329:255 330:255 331:255 332:255 333:255 334:255 335:255 336:255 337:255 338:255 339:255 340:255 341:255 342:255 343:255 344:255 345:255 346:255 355:255 356:255 416:255 425:255 486:255 494:255 543:255 544:255 545:255 556:255 564:255 577:255 615:255 626:255 634:255 648:255 668:255 669:255 670:255 671:255 672:255 673:255 674:255 678:255 679:255 680:255 681:255 682:255 686:255 687:255 688:255 689:255 690:255 691:255 696:255 705:255 710:255 711:255 712:255 713:255 714:255 716:255 717:255 718:255 719:255 722:255 723:255 724:255 725:255 726:255 727:255 728:255 731:255 732:255 733:255 738:255 744:255 747:255 748:255 752:255 753:255 756:255 762:255 766:255 775:255 779:255 780:255 784:255 787:255 789:255 792:255 794:255 796:255 798:255 801:255 803:255 808:255 810:255 811:255 812:255 817:255 821:255 823:255 826:255 827:255 828:255 829:255 830:255 832:255 836:255 845:255 849:255 855:255 856:255 857:255 859:255 862:255 864:255 866:255 869:255 871:255 873:255 878:255 880:255 887:255 890:255 891:255 893:255 900:255 902:255 906:255 915:255 919:255 925:255 927:255 929:255 931:255 932:255 934:255 936:255 939:255 941:255 943:255 945:255 946:255 948:255 950:255 951:255 952:255 953:255 954:255 957:255 963:255 969:255 972:255 976:255 985:255 989:255 995:255 997:255 999:255 1000:255 1002:255 1004:255 1006:255 1008:255 1010:255 1011:255 1012:255 1013:255 1018:255 1020:255 1024:255 1025:255 1026:255 1027:255 1029:255 1030:255 1031:255 1033:255 1038:255 1041:255 1046:255 1055:255 1059:255 1065:255 1067:255 1070:255 1071:255 1072:255 1074:255 1076:255 1078:255 1081:255 1083:255 1085:255 1086:255 1087:255 1088:255 1089:255 1090:255 1091:255 1092:255 1095:255 1097:255 1099:255 1101:255 1102:255 1104:255 1107:255 1110:255 1111:255 1116:255 1125:255 1130:255 1135:255 1137:255 1139:255 1140:255 1142:255 1143:255 1146:255 1148:255 1149:255 1150:255 1153:255 1160:255 1163:255 1169:255 1172:255 1174:255 1177:255 1179:255 1180:255 1186:255 1195:255 1200:255 1202:255 1205:255 1207:255 1209:255 1213:255 1216:255 1218:255 1220:255 1221:255 1223:255 1229:255 1230:255 1231:255 1232:255 1233:255 1239:255 1240:255 1241:255 1244:255 1246:255 1247:255 1249:255 1256:255 1265:255 1270:255 1272:255 1273:255 1275:255 1277:255 1279:255 1283:255 1286:255 1288:255 1291:255 1292:255 1293:255 1299:255 1305:255 1306:255 1307:255 1313:255 1314:255 1316:255 1320:255 1321:255 1322:255 1326:255 1335:255 1340:255 1341:255 1344:255 1345:255 1347:255 1349:255 1353:255 1354:255 1355:255 1356:255 1357:255 1361:255 1363:255 1369:255 1370:255 1371:255 1372:255 1373:255 1374:255 1375:255 1378:255 1379:255 1380:255 1381:255 1382:255 1383:255 1386:255 1387:255 1388:255 1392:255 1396:255 1405:255 1439:255 1460:255 1461:255 1466:255 1476:255 1496:255 1497:255 1498:255 1499:255 1500:255 1501:255 1502:255 1503:255 1504:255 1505:255 1506:255 1509:255 1510:255 1511:255 1513:255 1514:255 1515:255 1516:255 1536:255 1546:255 1566:255 1576:255 1586:255 1606:255 1616:255 1637:255 1638:255 1642:255 1643:255 1644:255 1645:255 1676:255 1686:255 1745:255 1746:255 1756:255 1757:255 1758:255 1759:255 1760:255 1770:255 1771:255 1772:255 1773:255 1774:255 1775:255 1776:255 1777:255 1778:255 1779:255 1780:255 1781:255 1782:255 1783:255 1784:255 1785:255 1786:255 1787:255 1788:255 1789:255 1790:255 1791:255 1792:255 1793:255 1794:255 1795:255 1796:255 1797:255 1798:255 1799:255 1800:255 1801:255 1802:255 1803:255 1804:255 1805:255 1806:255 1807:255 1808:255 1809:255 1810:255 1811:255 1812:255 1813:255 1814:255 1831:255 1832:255 1833:255 1834:255 1835:255 1836:255 1837:255 1838:255 1839:255 
4.036005213363712e-08 300:255 306:255 307:255 308:255 309:255 310:255 311:255 312:255 313:255 314:255 315:255 316:255 317:255 318:255 319:255 320:255 321:255 322:255 323:255 324:255 325:255 326:255 327:255 328:255 329:255 330:255 331:255 332:255 333:255 334:255 335:255 336:255 341:255 342:255 356:255 357:255 358:255 359:255 360:255 361:255 362:255 363:255 364:255 365:255 366:255 367:255 368:255 369:255 371:255 372:255 373:255 374:255 375:255 407:255 408:255 409:255 410:255 413:255 414:255 415:255 426:255 446:255 447:255 448:255 457:255 458:255 459:255 460:255 461:255 462:255 463:255 464:255 465:255 466:255 467:255 468:255 469:255 471:255 472:255 473:255 474:255 475:255 480:255 482:255 485:255 496:255 498:255 499:255 501:255 502:255 505:255 506:255 507:255 510:255 511:255 512:255 513:255 514:255 515:255 546:255 547:255 550:255 553:255 555:255 566:255 568:255 571:255 609:255 610:255 611:255 616:255 617:255 618:255 619:255 620:255 622:255 623:255 625:255 636:255 638:255 639:255 642:255 643:255 644:255 647:255 648:255 649:255 656:255 657:255 658:255 659:255 660:255 661:255 662:255 669:255 670:255 671:255 672:255 677:255 678:255 682:255 683:255 685:255 686:255 691:255 695:255 706:255 710:255 711:255 715:255 719:255 726:255 733:255 739:255 742:255 747:255 750:255 753:255 754:255 755:255 758:255 759:255 762:255 765:255 776:255 780:255 785:255 790:255 796:255 798:255 799:255 800:255 801:255 803:255 809:255 810:255 813:255 817:255 819:255 821:255 827:255 828:255 829:255 830:255 832:255 835:255 846:255 850:255 856:255 860:255 866:255 868:255 871:255 873:255 880:255 883:255 886:255 889:255 892:255 894:255 897:255 900:255 902:255 905:255 916:255 920:255 926:255 928:255 930:255 936:255 938:255 939:255 940:255 943:255 945:255 946:255 947:255 948:255 951:255 953:255 956:255 959:255 962:255 965:255 967:255 970:255 975:255 986:255 990:255 996:255 998:255 1000:255 1006:255 1012:255 1013:255 1014:255 1018:255 1021:255 1023:255 1027:255 1029:255 1032:255 1033:255 1035:255 1037:255 1040:255 1045:255 1056:255 1058:255 1060:255 1066:255 1068:255 1070:255 1076:255 1082:255 1085:255 1086:255 1087:255 1088:255 1091:255 1093:255 1097:255 1099:255 1102:255 1105:255 1107:255 1110:255 1115:255 1126:255 1128:255 1130:255 1136:255 1138:255 1140:255 1146:255 1149:255 1152:255 1161:255 1163:255 1167:255 1169:255 1170:255 1171:255 1172:255 1178:255 1180:255 1186:255 1196:255 1198:255 1201:255 1206:255 1208:255 1210:255 1211:255 1212:255 1213:255 1216:255 1219:255 1223:255 1230:255 1233:255 1234:255 1237:255 1241:255 1244:255 1246:255 1249:255 1252:255 1253:255 1256:255 1266:255 1268:255 1271:255 1275:255 1276:255 1278:255 1284:255 1287:255 1288:255 1289:255 1291:255 1293:255 1301:255 1303:255 1307:255 1308:255 1311:255 1313:255 1314:255 1316:255 1317:255 1321:255 1322:255 1326:255 1336:255 1338:255 1342:255 1343:255 1344:255 1347:255 1348:255 1349:255 1350:255 1351:255 1352:255 1353:255 1354:255 1358:255 1361:255 1362:255 1363:255 1371:255 1372:255 1373:255 1374:255 1379:255 1380:255 1381:255 1382:255 1383:255 1388:255 1389:255 1390:255 1394:255 1396:255 1406:255 1409:255 1431:255 1435:255 1436:255 1437:255 1438:255 1464:255 1466:255 1477:255 1479:255 1500:255 1501:255 1512:255 1534:255 1549:255 1570:255 1573:255 1574:255 1575:255 1576:255 1577:255 1578:255 1579:255 1580:255 1581:255 1582:255 1611:255 1612:255 1613:255 1614:255 1615:255 1616:255 1675:255 1676:255 1677:255 1678:255 1679:255 1680:255 1687:255 1688:255 1689:255 1722:255 1724:255 1729:255 1730:255 1731:255 1732:255 1733:255 1734:255 1735:255 1736:255 1737:255 1738:255 1739:255 1740:255 1741:255 1742:255 1743:255 1744:255 1745:255 1760:255 1761:255 1762:255 1763:255 1764:255 1765:255 1766:255 1767:255 1768:255 1769:255 1770:255 1771:255 1772:255 1773:255 1774:255 1775:255 1776:255 1777:255 1778:255 1779:255 1780:255 1781:255 1782:255 1783:255 1784:255 1785:255 1786:255 1787:255 1788:255 1789:255 1790:255 1791:255 1793:255 1795:255 1796:255 1797:255 1798:255 
7.961426994445591e-08 337:255 338:255 411:255 412:255 428:255 429:255 430:255 431:255 432:255 433:255 458:255 459:255 460:255 461:255 462:255 463:255 464:255 465:255 466:255 467:255 468:255 469:255 470:255 471:255 472:255 473:255 474:255 475:255 479:255 480:255 482:255 496:255 497:255 506:255 507:255 508:255 509:255 510:255 511:255 512:255 513:255 514:255 515:255 516:255 517:255 518:255 519:255 520:255 521:255 522:255 523:255 524:255 525:255 526:255 527:255 545:255 549:255 553:255 567:255 570:255 574:255 575:255 615:255 619:255 620:255 623:255 637:255 641:255 644:255 667:255 668:255 669:255 670:255 671:255 672:255 673:255 674:255 675:255 676:255 677:255 678:255 679:255 680:255 681:255 682:255 684:255 685:255 690:255 692:255 706:255 708:255 710:255 711:255 712:255 713:255 714:255 715:255 718:255 719:255 722:255 723:255 724:255 725:255 726:255 727:255 728:255 729:255 730:255 731:255 732:255 734:255 735:255 736:255 754:255 761:255 763:255 776:255 779:255 780:255 785:255 786:255 787:255 789:255 792:255 802:255 803:255 805:255 808:255 809:255 810:255 811:255 816:255 819:255 820:255 821:255 824:255 828:255 831:255 834:255 846:255 849:255 860:255 862:255 868:255 869:255 870:255 873:255 875:255 877:255 881:255 884:255 886:255 889:255 894:255 898:255 901:255 903:255 916:255 919:255 922:255 923:255 924:255 930:255 932:255 935:255 938:255 940:255 943:255 947:255 951:255 954:255 956:255 959:255 961:255 962:255 965:255 971:255 973:255 986:255 989:255 991:255 994:255 1000:255 1001:255 1002:255 1005:255 1008:255 1012:255 1013:255 1017:255 1021:255 1023:255 1026:255 1028:255 1029:255 1033:255 1035:255 1036:255 1040:255 1041:255 1043:255 1056:255 1059:255 1062:255 1064:255 1072:255 1075:255 1079:255 1080:255 1081:255 1084:255 1087:255 1090:255 1093:255 1096:255 1101:255 1103:255 1106:255 1109:255 1110:255 1113:255 1127:255 1129:255 1132:255 1134:255 1140:255 1142:255 1145:255 1148:255 1149:255 1154:255 1155:255 1157:255 1160:255 1163:255 1166:255 1169:255 1170:255 1173:255 1175:255 1176:255 1178:255 1179:255 1183:255 1197:255 1199:255 1202:255 1204:255 1210:255 1212:255 1215:255 1218:255 1225:255 1227:255 1230:255 1233:255 1236:255 1243:255 1245:255 1248:255 1252:255 1267:255 1269:255 1272:255 1273:255 1274:255 1280:255 1283:255 1285:255 1288:255 1300:255 1302:255 1306:255 1307:255 1308:255 1311:255 1312:255 1314:255 1315:255 1316:255 1317:255 1322:255 1337:255 1339:255 1346:255 1348:255 1350:255 1353:255 1355:255 1356:255 1358:255 1370:255 1372:255 1379:255 1380:255 1392:255 1407:255 1415:255 1416:255 1417:255 1418:255 1419:255 1420:255 1423:255 1424:255 1428:255 1429:255 1430:255 1431:255 1432:255 1433:255 1434:255 1435:255 1436:255 1437:255 1438:255 1439:255 1440:255 1441:255 1442:255 1443:255 1444:255 1445:255 1447:255 1462:255 1477:255 1480:255 1481:255 1482:255 1483:255 1484:255 1494:255 1516:255 1529:255 1531:255 1532:255 1549:255 1550:255 1555:255 1564:255 1576:255 1578:255 1586:255 1587:255 1588:255 1589:255 1590:255 1591:255 1592:255 1593:255 1594:255 1595:255 1596:255 1597:255 1598:255 1600:255 1619:255 1635:255 1646:255 1647:255 1648:255 1649:255 1650:255 1651:255 1652:255 1653:255 1654:255 1689:255 1690:255 1692:255 1693:255 1694:255 1695:255 1696:255 1697:255 1698:255 1699:255 1700:255 1701:255 1702:255 1703:255 1704:255 1705:255 1706:255 1707:255 1708:255 1709:255 1710:255 1711:255 1712:255 1713:255 1714:255 1715:255 1761:255 
5.769452767481359e-09 205:255 206:255 207:255 208:255 209:255 210:255 276:255 341:255 342:255 343:255 344:255 345:255 371:255 372:255 373:255 374:255 375:255 376:255 377:255 378:255 401:255 403:255 404:255 405:255 406:255 409:255 410:255 411:255 414:255 426:255 427:255 428:255 433:255 434:255 435:255 436:255 437:255 438:255 439:255 440:255 449:255 450:255 451:255 452:255 453:255 454:255 455:255 456:255 457:255 458:255 459:255 460:255 461:255 462:255 463:255 464:255 465:255 466:255 467:255 468:255 469:255 470:255 472:255 476:255 479:255 484:255 495:255 496:255 499:255 503:255 547:255 549:255 550:255 565:255 570:255 608:255 609:255 610:255 611:255 612:255 617:255 621:255 626:255 627:255 628:255 629:255 630:255 643:255 671:255 672:255 673:255 676:255 677:255 683:255 687:255 688:255 691:255 696:255 701:255 702:255 703:255 704:255 705:255 707:255 709:255 710:255 711:255 712:255 713:255 714:255 717:255 718:255 722:255 723:255 724:255 725:255 726:255 727:255 728:255 731:255 732:255 741:255 744:255 746:255 749:255 750:255 751:255 753:255 758:255 761:255 765:255 775:255 779:255 784:255 788:255 789:255 792:255 798:255 801:255 803:255 810:255 811:255 813:255 816:255 818:255 821:255 823:255 827:255 831:255 834:255 845:255 846:255 848:255 855:255 857:255 859:255 862:255 865:255 866:255 868:255 869:255 870:255 871:255 873:255 875:255 876:255 879:255 880:255 882:255 886:255 888:255 891:255 893:255 897:255 898:255 899:255 902:255 905:255 908:255 909:255 910:255 916:255 919:255 925:255 927:255 929:255 930:255 932:255 934:255 936:255 940:255 943:255 948:255 949:255 953:255 954:255 956:255 958:255 962:255 964:255 969:255 970:255 972:255 975:255 976:255 978:255 981:255 982:255 986:255 989:255 995:255 997:255 1000:255 1002:255 1004:255 1010:255 1013:255 1015:255 1016:255 1018:255 1024:255 1026:255 1029:255 1031:255 1034:255 1035:255 1039:255 1040:255 1042:255 1046:255 1047:255 1048:255 1053:255 1054:255 1056:255 1059:255 1065:255 1067:255 1069:255 1070:255 1071:255 1072:255 1078:255 1079:255 1080:255 1083:255 1088:255 1090:255 1092:255 1097:255 1099:255 1100:255 1101:255 1103:255 1106:255 1108:255 1112:255 1126:255 1129:255 1135:255 1137:255 1139:255 1142:255 1147:255 1150:255 1151:255 1153:255 1158:255 1164:255 1165:255 1167:255 1168:255 1173:255 1176:255 1181:255 1182:255 1184:255 1197:255 1199:255 1200:255 1201:255 1202:255 1203:255 1204:255 1205:255 1207:255 1209:255 1212:255 1213:255 1214:255 1216:255 1217:255 1221:255 1222:255 1223:255 1228:255 1229:255 1230:255 1231:255 1232:255 1233:255 1234:255 1239:255 1240:255 1241:255 1242:255 1243:255 1247:255 1248:255 1249:255 1250:255 1254:255 1267:255 1276:255 1277:255 1278:255 1279:255 1285:255 1298:255 1301:255 1303:255 1326:255 1327:255 1328:255 1329:255 1330:255 1337:255 1355:255 1358:255 1359:255 1360:255 1361:255 1363:255 1364:255 1365:255 1366:255 1367:255 1368:255 1370:255 1371:255 1373:255 1374:255 1375:255 1376:255 1377:255 1388:255 1389:255 1390:255 1395:255 1396:255 1407:255 1425:255 1426:255 1431:255 1436:255 1443:255 1447:255 1457:255 1458:255 1460:255 1461:255 1462:255 1463:255 1464:255 1465:255 1471:255 1472:255 1473:255 1474:255 1482:255 1483:255 1484:255 1485:255 1495:255 1517:255 1518:255 1519:255 1520:255 1521:255 1522:255 1523:255 1524:255 1525:255 1526:255 1527:255 1545:255 1546:255 1547:255 1548:255 1549:255 1550:255 1551:255 1552:255 1555:255 1556:255 1557:255 1562:255 1563:255 1564:255 1565:255 1566:255 1567:255 1568:255 1569:255 1570:255 1571:255 1572:255 1573:255 1574:255 1575:255 1576:255 1577:255 1578:255 1579:255 1580:255 1581:255 1582:255 1583:255 1584:255 1585:255 1586:255 1628:255 1629:255 1630:255 1631:255 1671:255 1672:255 1673:255 1674:255 1675:255 1676:255 1677:255 1678:255 1679:255 1680:255 1692:255 1719:255 1720:255 1721:255 1722:255 1723:255 1724:255 1725:255 1726:255 1727:255 1728:255 1729:255 1730:255 1731:255 1732:255 1733:255 1734:255 1735:255 1736:255 1737:255 1738:255 1739:255 1740:255 1741:255 1751:255 1752:255 1753:255 1754:255 1755:255 1756:255 1757:255 1761:255 1762:255 1763:255 1764:255 1770:255 1771:255 1772:255 1773:255 1778:255 1779:255 1780:255 1781:255 1782:255 1783:255 1784:255 1785:255 1786:255 1787:255 1788:255 1828:255 1829:255 1830:255 1835:255 1836:255 1837:255 1838:255 1839:255 1844:255 1845:255 1846:255 1847:255 
1.567945859602299e-08 141:255 142:255 143:255 144:255 145:255 146:255 181:255 182:255 183:255 184:255 185:255 186:255 187:255 188:255 189:255 190:255 191:255 192:255 193:255 194:255 195:255 196:255 197:255 198:255 199:255 200:255 201:255 202:255 203:255 204:255 207:255 208:255 209:255 210:255 220:255 221:255 222:255 223:255 224:255 225:255 226:255 227:255 228:255 229:255 230:255 231:255 232:255 233:255 234:255 235:255 236:255 237:255 238:255 239:255 240:255 241:255 242:255 243:255 244:255 245:255 246:255 247:255 248:255 249:255 250:255 275:255 277:255 281:255 282:255 283:255 284:255 285:255 288:255 289:255 337:255 338:255 339:255 340:255 345:255 355:255 357:255 398:255 399:255 400:255 401:255 402:255 403:255 404:255 405:255 406:255 410:255 411:255 414:255 427:255 429:255 433:255 435:255 438:255 439:255 440:255 441:255 442:255 443:255 444:255 445:255 446:255 447:255 448:255 449:255 450:255 451:255 452:255 453:255 454:255 455:255 456:255 457:255 458:255 459:255 460:255 461:255 462:255 463:255 464:255 465:255 466:255 467:255 476:255 477:255 480:255 484:255 497:255 499:255 500:255 501:255 502:255 506:255 507:255 548:255 550:255 554:255 568:255 574:255 616:255 617:255 618:255 620:255 621:255 622:255 625:255 639:255 647:255 648:255 649:255 650:255 653:255 654:255 655:255 656:255 657:255 658:255 662:255 663:255 664:255 670:255 671:255 672:255 673:255 680:255 681:255 682:255 686:255 692:255 695:255 707:255 710:255 711:255 712:255 715:255 716:255 720:255 723:255 728:255 729:255 732:255 734:255 740:255 743:255 750:255 753:255 756:255 758:255 759:255 760:255 762:255 765:255 777:255 780:255 782:255 783:255 784:255 785:255 790:255 793:255 799:255 802:255 804:255 810:255 811:255 813:255 819:255 820:255 823:255 826:255 827:255 830:255 832:255 833:255 835:255 847:255 850:255 854:255 857:255 860:255 863:255 869:255 872:255 874:255 881:255 883:255 889:255 893:255 899:255 900:255 902:255 905:255 917:255 920:255 927:255 931:255 933:255 939:255 942:255 944:255 946:255 947:255 948:255 951:255 954:255 958:255 959:255 963:255 968:255 969:255 972:255 975:255 987:255 990:255 997:255 1001:255 1003:255 1009:255 1012:255 1014:255 1018:255 1021:255 1024:255 1028:255 1033:255 1038:255 1041:255 1045:255 1057:255 1060:255 1067:255 1071:255 1073:255 1079:255 1082:255 1084:255 1086:255 1087:255 1088:255 1091:255 1094:255 1098:255 1103:255 1104:255 1107:255 1108:255 1110:255 1111:255 1115:255 1128:255 1130:255 1137:255 1141:255 1143:255 1149:255 1152:255 1154:255 1161:255 1164:255 1168:255 1173:255 1177:255 1180:255 1185:255 1197:255 1200:255 1211:255 1212:255 1213:255 1219:255 1220:255 1221:255 1222:255 1224:255 1231:255 1234:255 1238:255 1239:255 1240:255 1243:255 1246:255 1247:255 1250:255 1255:255 1268:255 1270:255 1273:255 1279:255 1285:255 1286:255 1287:255 1290:255 1291:255 1294:255 1300:255 1301:255 1304:255 1305:255 1310:255 1311:255 1313:255 1316:255 1321:255 1322:255 1323:255 1325:255 1338:255 1340:255 1341:255 1342:255 1343:255 1344:255 1345:255 1346:255 1347:255 1348:255 1349:255 1350:255 1355:255 1357:255 1358:255 1359:255 1363:255 1364:255 1370:255 1375:255 1381:255 1382:255 1383:255 1386:255 1387:255 1395:255 1408:255 1416:255 1421:255 1422:255 1423:255 1424:255 1430:255 1431:255 1432:255 1433:255 1441:255 1442:255 1443:255 1444:255 1445:255 1458:255 1459:255 1460:255 1461:255 1462:255 1463:255 1464:255 1478:255 1481:255 1497:255 1498:255 1504:255 1505:255 1506:255 1507:255 1509:255 1516:255 1517:255 1535:255 1548:255 1554:255 1555:255 1557:255 1558:255 1566:255 1567:255 1573:255 1577:255 1578:255 1581:255 1582:255 1583:255 1584:255 1585:255 1587:255 1598:255 1599:255 1600:255 1601:255 1605:255 1619:255 1623:255 1626:255 1636:255 1637:255 1638:255 1639:255 1640:255 1647:255 1650:255 1657:255 1667:255 1671:255 1675:255 1689:255 1690:255 1691:255 1693:255 1744:255 1745:255 1762:255 1764:255 1765:255 1766:255 1767:255 1768:255 1769:255 1770:255 1771:255 1772:255 1773:255 1774:255 1775:255 1776:255 1777:255 1778:255 1779:255 1780:255 1781:255 1782:255 1783:255 1784:255 1785:255 1786:255 1787:255 1788:255 1789:255 1790:255 1791:255 1792:255 1793:255 1794:255 1795:255 1796:255 1797:255 1798:255 1799:255 1800:255 1801:255 1802:255 1803:255 1804:255 1805:255 1806:255 1807:255 1808:255 1809:255 1810:255 1811:255 1812:255 1813:255 
9.572685314054611e-09 320:255 321:255 322:255 323:255 324:255 325:255 326:255 327:255 328:255 329:255 330:255 331:255 332:255 333:255 334:255 335:255 336:255 337:255 338:255 339:255 340:255 341:255 342:255 343:255 344:255 358:255 359:255 360:255 361:255 362:255 363:255 364:255 365:255 366:255 367:255 368:255 369:255 370:255 371:255 372:255 373:255 374:255 375:255 376:255 377:255 378:255 379:255 380:255 381:255 382:255 383:255 384:255 385:255 386:255 387:255 388:255 389:255 414:255 427:255 471:255 472:255 473:255 479:255 480:255 481:255 482:255 485:255 497:255 501:255 508:255 509:255 510:255 511:255 512:255 513:255 514:255 515:255 516:255 517:255 518:255 519:255 520:255 521:255 522:255 523:255 524:255 525:255 526:255 527:255 544:255 545:255 549:255 555:255 567:255 569:255 576:255 610:255 611:255 616:255 617:255 618:255 619:255 625:255 637:255 639:255 641:255 642:255 643:255 644:255 646:255 655:255 656:255 657:255 658:255 659:255 660:255 661:255 668:255 669:255 670:255 671:255 672:255 673:255 674:255 675:255 676:255 677:255 678:255 679:255 682:255 683:255 686:255 690:255 691:255 692:255 695:255 706:255 710:255 715:255 716:255 717:255 718:255 719:255 720:255 723:255 724:255 732:255 733:255 745:255 747:255 753:255 754:255 756:255 758:255 765:255 767:255 768:255 769:255 770:255 771:255 772:255 773:255 774:255 775:255 776:255 780:255 782:255 784:255 790:255 793:255 799:255 800:255 803:255 809:255 810:255 811:255 815:255 817:255 819:255 820:255 821:255 824:255 827:255 829:255 832:255 835:255 847:255 852:255 853:255 854:255 858:255 860:255 863:255 869:255 871:255 874:255 881:255 884:255 887:255 889:255 891:255 894:255 895:255 899:255 901:255 902:255 905:255 917:255 922:255 924:255 928:255 930:255 931:255 932:255 933:255 939:255 940:255 941:255 944:255 945:255 946:255 948:255 950:255 954:255 955:255 957:255 959:255 962:255 964:255 968:255 969:255 971:255 975:255 986:255 987:255 992:255 995:255 998:255 1009:255 1013:255 1017:255 1021:255 1025:255 1029:255 1032:255 1034:255 1037:255 1038:255 1041:255 1044:255 1045:255 1046:255 1047:255 1048:255 1049:255 1050:255 1051:255 1052:255 1053:255 1054:255 1055:255 1058:255 1062:255 1065:255 1068:255 1070:255 1081:255 1082:255 1084:255 1085:255 1087:255 1092:255 1093:255 1099:255 1102:255 1104:255 1107:255 1110:255 1111:255 1114:255 1128:255 1132:255 1135:255 1138:255 1141:255 1142:255 1143:255 1149:255 1150:255 1156:255 1163:255 1169:255 1170:255 1171:255 1172:255 1174:255 1176:255 1177:255 1179:255 1180:255 1184:255 1198:255 1200:255 1202:255 1205:255 1207:255 1211:255 1213:255 1219:255 1229:255 1230:255 1231:255 1232:255 1233:255 1240:255 1241:255 1244:255 1246:255 1249:255 1253:255 1268:255 1270:255 1272:255 1273:255 1274:255 1281:255 1283:255 1289:255 1299:255 1305:255 1306:255 1307:255 1308:255 1313:255 1316:255 1319:255 1320:255 1321:255 1322:255 1324:255 1338:255 1340:255 1350:255 1354:255 1358:255 1359:255 1369:255 1370:255 1371:255 1374:255 1375:255 1378:255 1379:255 1380:255 1381:255 1382:255 1383:255 1384:255 1385:255 1386:255 1387:255 1394:255 1408:255 1410:255 1415:255 1416:255 1417:255 1418:255 1419:255 1420:255 1424:255 1425:255 1426:255 1427:255 1458:255 1459:255 1460:255 1461:255 1462:255 1463:255 1464:255 1479:255 1481:255 1482:255 1483:255 1484:255 1499:255 1500:255 1501:255 1502:255 1503:255 1504:255 1505:255 1506:255 1507:255 1508:255 1509:255 1510:255 1512:255 1513:255 1514:255 1515:255 1516:255 1517:255 1534:255 1549:255 1566:255 1567:255 1579:255 1587:255 1597:255 1598:255 1599:255 1600:255 1604:255 1619:255 1623:255 1624:255 1625:255 1626:255 1636:255 1637:255 1638:255 1639:255 1640:255 1643:255 1644:255 1645:255 1646:255 1657:255 1667:255 1670:255 1673:255 1690:255 1693:255 1696:255 1726:255 1727:255 1728:255 1729:255 1730:255 1731:255 1732:255 1733:255 1734:255 1735:255 1736:255 1737:255 1738:255 1739:255 1740:255 1741:255 1742:255 1743:255 1745:255 1760:255 1761:255 1762:255 1763:255 1765:255 1766:255 1767:255 1768:255 1769:255 1770:255 1771:255 1772:255 1773:255 1774:255 1775:255 1776:255 1777:255 1778:255 1779:255 1780:255 1781:255 1782:255 1783:255 1784:255 1785:255 1786:255 1787:255 1788:255 1789:255 1790:255 1791:255 1792:255 1793:255 1794:255 1795:255 1818:255 1819:255 1820:255 1821:255 1822:255 1823:255 1824:255 1825:255 1826:255 1827:255 1884:255 1885:255 1886:255 1887:255 1898:255 1899:255 1935:255 1936:255 1937:255 1938:255 1939:255 1940:255 1941:255 1942:255 1943:255 1944:255 1945:255 1946:255 1947:255 1948:255 1949:255 1950:255 1951:255 1952:255 1953:255 1970:255 1971:255 1972:255 1973:255 1974:255 1975:255 1976:255 1977:255 1978:255 1979:255 1980:255 1981:255 1982:255 1983:255 1984:255 1985:255 1986:255 1987:255 1988:255 1989:255 1990:255 1991:255 1992:255 1993:255 1994:255 1995:255 1996:255 1997:255 1998:255 1999:255 2000:255 2001:255 2002:255 2003:255 2004:255 
1.414248729698317e-08 262:255 263:255 264:255 265:255 266:255 267:255 268:255 270:255 271:255 272:255 273:255 274:255 275:255 276:255 277:255 278:255 279:255 280:255 281:255 282:255 283:255 284:255 285:255 286:255 287:255 288:255 289:255 290:255 291:255 292:255 293:255 294:255 295:255 296:255 297:255 298:255 299:255 300:255 301:255 302:255 303:255 304:255 305:255 306:255 307:255 308:255 309:255 310:255 311:255 312:255 313:255 314:255 315:255 316:255 317:255 318:255 319:255 320:255 321:255 322:255 323:255 324:255 325:255 326:255 327:255 328:255 329:255 330:255 331:255 339:255 343:255 412:255 430:255 431:255 432:255 438:255 439:255 440:255 441:255 442:255 443:255 444:255 445:255 446:255 447:255 448:255 449:255 450:255 451:255 452:255 453:255 454:255 455:255 456:255 457:255 458:255 459:255 460:255 461:255 462:255 463:255 464:255 465:255 466:255 467:255 468:255 469:255 470:255 471:255 472:255 473:255 475:255 477:255 480:255 481:255 483:255 500:255 504:255 506:255 554:255 569:255 570:255 571:255 582:255 583:255 586:255 603:255 604:255 610:255 617:255 618:255 619:255 620:255 621:255 624:255 642:255 645:255 646:255 651:255 654:255 657:255 658:255 659:255 661:255 662:255 663:255 673:255 675:255 679:255 681:255 682:255 687:255 691:255 692:255 694:255 710:255 712:255 714:255 717:255 720:255 724:255 727:255 729:255 731:255 734:255 742:255 745:255 749:255 752:255 756:255 759:255 762:255 780:255 782:255 784:255 786:255 787:255 791:255 794:255 797:255 799:255 800:255 803:255 812:255 814:255 815:255 819:255 822:255 826:255 830:255 832:255 851:255 854:255 856:255 861:255 864:255 867:255 872:255 873:255 876:255 881:255 882:255 884:255 890:255 892:255 896:255 899:255 900:255 902:255 921:255 925:255 926:255 931:255 933:255 937:255 942:255 945:255 946:255 948:255 950:255 951:255 954:255 960:255 962:255 966:255 972:255 991:255 995:255 1001:255 1003:255 1007:255 1011:255 1015:255 1018:255 1019:255 1020:255 1024:255 1025:255 1030:255 1032:255 1036:255 1038:255 1039:255 1040:255 1042:255 1043:255 1060:255 1065:255 1071:255 1073:255 1077:255 1081:255 1085:255 1089:255 1096:255 1100:255 1102:255 1106:255 1108:255 1110:255 1111:255 1113:255 1130:255 1135:255 1136:255 1141:255 1143:255 1147:255 1150:255 1152:255 1153:255 1156:255 1157:255 1159:255 1161:255 1162:255 1163:255 1164:255 1166:255 1170:255 1172:255 1176:255 1178:255 1181:255 1183:255 1206:255 1211:255 1214:255 1217:255 1219:255 1220:255 1223:255 1229:255 1231:255 1236:255 1240:255 1242:255 1246:255 1248:255 1249:255 1250:255 1251:255 1253:255 1272:255 1273:255 1274:255 1277:255 1280:255 1281:255 1284:255 1287:255 1289:255 1291:255 1293:255 1294:255 1299:255 1302:255 1303:255 1306:255 1309:255 1312:255 1313:255 1316:255 1319:255 1323:255 1340:255 1342:255 1344:255 1345:255 1347:255 1350:255 1354:255 1357:255 1359:255 1361:255 1364:255 1369:255 1370:255 1375:255 1376:255 1380:255 1383:255 1386:255 1387:255 1391:255 1392:255 1394:255 1395:255 1401:255 1402:255 1403:255 1411:255 1412:255 1415:255 1416:255 1417:255 1420:255 1421:255 1422:255 1424:255 1427:255 1428:255 1429:255 1432:255 1434:255 1440:255 1441:255 1442:255 1443:255 1444:255 1445:255 1450:255 1451:255 1452:255 1453:255 1457:255 1458:255 1459:255 1460:255 1461:255 1464:255 1466:255 1474:255 1475:255 1476:255 1477:255 1478:255 1480:255 1505:255 1507:255 1508:255 1516:255 1517:255 1518:255 1520:255 1534:255 1536:255 1549:255 1564:255 1565:255 1566:255 1567:255 1568:255 1569:255 1570:255 1571:255 1572:255 1573:255 1574:255 1576:255 1579:255 1580:255 1581:255 1582:255 1583:255 1584:255 1585:255 1590:255 1604:255 1606:255 1620:255 1624:255 1625:255 1633:255 1641:255 1646:255 1649:255 1652:255 1656:255 1660:255 1667:255 1669:255 1674:255 1677:255 1690:255 1705:255 1706:255 1707:255 1708:255 1710:255 1711:255 1720:255 1721:255 1730:255 1743:255 1744:255 1746:255 1751:255 1752:255 1753:255 1754:255 1755:255 1756:255 1757:255 1758:255 1760:255 1761:255 1762:255 1763:255 1764:255 1765:255 1766:255 1767:255 1768:255 1769:255 1770:255 1771:255 1772:255 1773:255 1799:255 1800:255 1801:255 1802:255 1803:255 1804:255 1805:255 1806:255 1807:255 1808:255 1809:255 1810:255 1811:255 1812:255 1813:255 1844:255 1845:255 1846:255 1847:255 1848:255 1849:255 1850:255 1851:255 1852:255 1853:255 1854:255 1855:255 1856:255 1857:255 1858:255 1859:255 1860:255 1861:255 1862:255 1863:255 1864:255 1865:255 1866:255 1867:255 1868:255 1891:255 1892:255 1893:255 1894:255 1895:255 1951:255 1952:255 1953:255 1954:255 1955:255 1956:255 1957:255 1958:255 1959:255 1960:255 1966:255 1967:255 1968:255 1969:255 1970:255 1971:255 1972:255 1973:255 1974:255 1975:255 1976:255 1977:255 1978:255 1979:255 1980:255 1981:255 1982:255 1983:255 1984:255 1985:255 1986:255 1987:255 1988:255 1989:255 1990:255 1991:255 1992:255 1993:255 1994:255 1995:255 1996:255 1997:255 1998:255 1999:255 2000:255 2001:255 2002:255 2003:255 2004:255 2005:255 2006:255 2007:255 2008:255 2009:255 2010:255 2011:255 2012:255 2013:255 2014:255 2015:255 2016:255 2017:255 2018:255 2019:255 2020:255 2096:255 2097:255 2098:255 2099:255 2100:255 
4.718823790623277e-08 23:255 24:255 25:255 39:255 40:255 41:255 42:255 43:255 44:255 45:255 46:255 47:255 48:255 96:255 97:255 98:255 99:255 100:255 101:255 102:255 103:255 104:255 105:255 106:255 107:255 108:255 188:255 189:255 190:255 191:255 192:255 193:255 194:255 195:255 196:255 197:255 198:255 199:255 200:255 201:255 202:255 255:255 256:255 257:255 331:255 332:255 333:255 342:255 343:255 361:255 362:255 367:255 368:255 369:255 371:255 372:255 373:255 374:255 375:255 376:255 377:255 378:255 379:255 380:255 381:255 382:255 383:255 384:255 385:255 386:255 387:255 388:255 389:255 390:255 391:255 392:255 393:255 394:255 395:255 396:255 397:255 398:255 399:255 400:255 403:255 407:255 408:255 409:255 410:255 411:255 414:255 429:255 433:255 434:255 435:255 436:255 440:255 470:255 471:255 474:255 475:255 481:255 499:255 507:255 510:255 511:255 512:255 513:255 515:255 516:255 524:255 525:255 542:255 543:255 544:255 551:255 570:255 571:255 572:255 573:255 574:255 575:255 577:255 580:255 587:255 588:255 589:255 590:255 591:255 592:255 599:255 600:255 601:255 602:255 607:255 608:255 609:255 611:255 613:255 616:255 617:255 618:255 619:255 622:255 639:255 640:255 645:255 646:255 647:255 648:255 654:255 655:255 669:255 672:255 677:255 680:255 686:255 689:255 691:255 712:255 716:255 718:255 720:255 721:255 722:255 723:255 726:255 727:255 728:255 731:255 732:255 739:255 742:255 747:255 750:255 755:255 756:255 759:255 761:255 782:255 784:255 786:255 788:255 790:255 798:255 801:255 809:255 812:255 817:255 820:255 825:255 829:255 831:255 841:255 842:255 843:255 844:255 850:255 852:255 856:255 858:255 860:255 861:255 862:255 863:255 868:255 871:255 873:255 874:255 875:255 876:255 877:255 879:255 882:255 888:255 890:255 894:255 895:255 899:255 902:255 906:255 907:255 908:255 909:255 910:255 915:255 916:255 917:255 920:255 925:255 926:255 927:255 938:255 941:255 943:255 947:255 950:255 952:255 958:255 960:255 964:255 969:255 970:255 972:255 974:255 975:255 987:255 990:255 992:255 993:255 994:255 995:255 998:255 1001:255 1002:255 1003:255 1008:255 1011:255 1013:255 1016:255 1017:255 1019:255 1022:255 1028:255 1030:255 1032:255 1034:255 1040:255 1042:255 1057:255 1060:255 1062:255 1067:255 1071:255 1078:255 1081:255 1084:255 1086:255 1089:255 1092:255 1093:255 1097:255 1100:255 1101:255 1104:255 1105:255 1110:255 1112:255 1128:255 1132:255 1138:255 1140:255 1148:255 1151:255 1154:255 1155:255 1158:255 1159:255 1163:255 1167:255 1171:255 1176:255 1177:255 1179:255 1180:255 1182:255 1198:255 1200:255 1202:255 1208:255 1210:255 1218:255 1220:255 1228:255 1231:255 1232:255 1237:255 1238:255 1241:255 1247:255 1248:255 1249:255 1252:255 1269:255 1270:255 1271:255 1272:255 1278:255 1279:255 1280:255 1288:255 1290:255 1298:255 1302:255 1308:255 1309:255 1310:255 1311:255 1322:255 1339:255 1355:255 1356:255 1357:255 1358:255 1359:255 1360:255 1361:255 1362:255 1363:255 1364:255 1365:255 1366:255 1367:255 1368:255 1371:255 1372:255 1373:255 1374:255 1375:255 1385:255 1386:255 1392:255 1409:255 1425:255 1438:255 1445:255 1455:255 1462:255 1479:255 1495:255 1496:255 1498:255 1501:255 1502:255 1503:255 1531:255 1549:255 1550:255 1551:255 1552:255 1553:255 1554:255 1555:255 1556:255 1557:255 1558:255 1559:255 1560:255 1561:255 1562:255 1563:255 1564:255 1565:255 1578:255 1579:255 1580:255 1584:255 1585:255 1586:255 1587:255 1588:255 1589:255 1590:255 1591:255 1592:255 1593:255 1594:255 1595:255 1596:255 1597:255 1598:255 1599:255 1600:255 1601:255 1636:255 1637:255 1638:255 1639:255 1640:255 1641:255 1642:255 1643:255 1644:255 1645:255 1646:255 1647:255 1651:255 1652:255 1653:255 1751:255 1818:255 1819:255 1820:255 1822:255 1823:255 1824:255 1825:255 1826:255 1827:255 1828:255 1829:255 1830:255 1831:255 1832:255 1833:255 1834:255 1835:255 1874:255 1876:255 1877:255 1878:255 1879:255 1880:255 1881:255 1882:255 1883:255 1884:255 1885:255 1886:255 1887:255 1906:255 1907:255 1908:255 1909:255 1910:255 1911:255 1912:255 1913:255 1914:255 1915:255 1916:255 1917:255 1918:255 1919:255 1920:255 1921:255 1922:255 1923:255 1924:255 1925:255 1926:255 1927:255 1928:255 1929:255 1930:255 1931:255 1932:255 1933:255 1934:255 1935:255 1936:255 1937:255 1938:255 1939:255 1940:255 1941:255 1942:255 1943:255 1945:255 1961:255 1962:255 1963:255 1964:255 1965:255 1966:255 1967:255 1968:255 1969:255 1970:255 2019:255 2020:255 2021:255 2022:255 2023:255 2024:255 2025:255 2026:255 2027:255 2028:255 2029:255 2030:255 2042:255 2043:255 2044:255 2045:255 2046:255 2047:255 2048:255 2049:255 2050:255 2051:255 2052:255 2053:255 2054:255 2055:255 2056:255 2057:255 2058:255 2059:255 2060:255 2061:255 2062:255 2063:255 2064:255 2065:255 2066:255 2067:255 2068:255 2069:255 2070:255 2071:255 2072:255 2073:255 2074:255 2075:255 2076:255 2077:255 2078:255 2079:255 2080:255 2081:255 2082:255 2083:255 2084:255 2085:255 2086:255 2087:255 
1.35135858588618e-09 6:255 48:255 61:255 62:255 63:255 76:255 118:255 119:255 120:255 121:255 122:255 123:255 124:255 125:255 126:255 127:255 128:255 129:255 130:255 131:255 133:255 134:255 146:255 204:255 205:255 216:255 275:255 276:255 286:255 297:255 298:255 299:255 300:255 301:255 346:255 356:255 357:255 358:255 359:255 360:255 361:255 362:255 363:255 364:255 416:255 425:255 472:255 477:255 478:255 479:255 480:255 481:255 482:255 483:255 487:255 495:255 498:255 500:255 505:255 506:255 507:255 508:255 511:255 512:255 513:255 514:255 515:255 516:255 517:255 518:255 519:255 520:255 521:255 522:255 523:255 524:255 525:255 526:255 527:255 528:255 529:255 530:255 531:255 532:255 533:255 534:255 535:255 536:255 537:255 541:255 554:255 555:255 557:255 565:255 568:255 569:255 571:255 572:255 573:255 574:255 575:255 581:255 608:255 609:255 614:255 615:255 627:255 635:255 638:255 648:255 649:255 651:255 679:255 683:255 684:255 686:255 687:255 688:255 689:255 690:255 691:255 692:255 694:255 697:255 705:255 708:255 709:255 710:255 713:255 715:255 716:255 717:255 718:255 721:255 722:255 723:255 724:255 727:255 728:255 729:255 730:255 731:255 741:255 750:255 753:255 757:255 763:255 767:255 775:255 780:255 781:255 783:255 784:255 785:255 787:255 794:255 796:255 797:255 802:255 803:255 808:255 809:255 810:255 812:255 813:255 814:255 818:255 819:255 820:255 821:255 823:255 833:255 837:255 845:255 851:255 855:255 857:255 860:255 861:255 862:255 866:255 869:255 870:255 873:255 878:255 884:255 885:255 887:255 893:255 896:255 897:255 898:255 899:255 900:255 901:255 903:255 906:255 915:255 919:255 921:255 922:255 924:255 925:255 927:255 930:255 932:255 938:255 939:255 940:255 941:255 943:255 948:255 950:255 951:255 952:255 955:255 957:255 959:255 963:255 966:255 971:255 976:255 985:255 989:255 992:255 994:255 997:255 1000:255 1002:255 1008:255 1011:255 1013:255 1017:255 1020:255 1023:255 1025:255 1027:255 1028:255 1030:255 1031:255 1033:255 1035:255 1038:255 1041:255 1044:255 1046:255 1055:255 1059:255 1064:255 1067:255 1069:255 1073:255 1075:255 1078:255 1081:255 1084:255 1085:255 1086:255 1088:255 1090:255 1091:255 1092:255 1095:255 1101:255 1103:255 1105:255 1108:255 1112:255 1114:255 1116:255 1125:255 1129:255 1133:255 1137:255 1139:255 1143:255 1148:255 1151:255 1154:255 1158:255 1165:255 1169:255 1170:255 1173:255 1175:255 1182:255 1186:255 1195:255 1199:255 1204:255 1207:255 1210:255 1212:255 1218:255 1221:255 1223:255 1226:255 1227:255 1229:255 1230:255 1234:255 1239:255 1242:255 1245:255 1252:255 1256:255 1265:255 1269:255 1272:255 1274:255 1277:255 1280:255 1282:255 1288:255 1291:255 1293:255 1295:255 1300:255 1303:255 1304:255 1308:255 1309:255 1312:255 1314:255 1315:255 1318:255 1319:255 1322:255 1326:255 1335:255 1341:255 1345:255 1347:255 1350:255 1351:255 1352:255 1358:255 1359:255 1360:255 1361:255 1363:255 1369:255 1370:255 1372:255 1373:255 1377:255 1378:255 1381:255 1383:255 1384:255 1387:255 1389:255 1392:255 1396:255 1405:255 1410:255 1411:255 1412:255 1417:255 1424:255 1425:255 1426:255 1429:255 1430:255 1433:255 1438:255 1439:255 1442:255 1445:255 1446:255 1447:255 1451:255 1452:255 1455:255 1458:255 1461:255 1462:255 1466:255 1475:255 1480:255 1483:255 1484:255 1485:255 1486:255 1487:255 1488:255 1489:255 1490:255 1491:255 1492:255 1493:255 1496:255 1503:255 1507:255 1508:255 1511:255 1514:255 1525:255 1526:255 1531:255 1533:255 1536:255 1545:255 1548:255 1549:255 1567:255 1568:255 1569:255 1570:255 1571:255 1572:255 1586:255 1587:255 1588:255 1589:255 1590:255 1591:255 1592:255 1593:255 1594:255 1597:255 1598:255 1599:255 1600:255 1603:255 1606:255 1611:255 1612:255 1613:255 1614:255 1615:255 1618:255 1639:255 1643:255 1644:255 1645:255 1646:255 1647:255 1648:255 1673:255 1676:255 1677:255 1687:255 1688:255 1691:255 1692:255 1693:255 1694:255 1695:255 1696:255 1697:255 1698:255 1699:255 1700:255 1701:255 1702:255 1703:255 1704:255 1705:255 1706:255 1707:255 1708:255 1709:255 1710:255 1711:255 1719:255 1720:255 1721:255 1722:255 1723:255 1724:255 1725:255 1726:255 1727:255 1728:255 1729:255 1730:255 1731:255 1732:255 1733:255 1735:255 1736:255 1737:255 1738:255 1739:255 1743:255 1747:255 1748:255 1749:255 1750:255 1757:255 1758:255 1759:255 1760:255 1761:255 1804:255 1809:255 1810:255 1812:255 1813:255 1814:255 1815:255 1881:255 1994:255 1995:255 1996:255 2064:255 2067:255 
2.083956549702715e-09 5:255 65:255 66:255 71:255 72:255 73:255 74:255 76:255 77:255 78:255 79:255 80:255 81:255 82:255 83:255 84:255 85:255 86:255 87:255 88:255 89:255 90:255 91:255 92:255 93:255 94:255 95:255 96:255 97:255 98:255 99:255 100:255 101:255 102:255 103:255 104:255 105:255 106:255 107:255 108:255 109:255 110:255 111:255 112:255 113:255 114:255 115:255 116:255 117:255 118:255 119:255 120:255 121:255 122:255 123:255 124:255 125:255 126:255 127:255 128:255 129:255 130:255 131:255 132:255 133:255 134:255 137:255 138:255 139:255 140:255 211:255 212:255 276:255 277:255 278:255 279:255 280:255 283:255 284:255 285:255 286:255 287:255 288:255 289:255 290:255 291:255 292:255 293:255 294:255 295:255 296:255 297:255 298:255 299:255 300:255 301:255 302:255 303:255 304:255 305:255 306:255 307:255 308:255 309:255 310:255 311:255 312:255 313:255 314:255 315:255 316:255 317:255 318:255 319:255 320:255 321:255 322:255 323:255 324:255 325:255 326:255 327:255 328:255 329:255 330:255 331:255 332:255 333:255 334:255 335:255 336:255 337:255 338:255 339:255 340:255 341:255 342:255 343:255 344:255 351:255 352:255 414:255 417:255 418:255 419:255 420:255 423:255 424:255 425:255 426:255 485:255 496:255 500:255 501:255 502:255 505:255 547:255 549:255 554:255 555:255 566:255 575:255 616:255 619:255 625:255 636:255 651:255 678:255 679:255 680:255 681:255 682:255 683:255 695:255 706:255 708:255 711:255 712:255 713:255 714:255 718:255 719:255 720:255 723:255 724:255 725:255 732:255 733:255 738:255 739:255 740:255 741:255 742:255 743:255 744:255 747:255 753:255 756:255 757:255 758:255 759:255 764:255 776:255 778:255 781:255 788:255 794:255 796:255 797:255 798:255 799:255 802:255 803:255 808:255 814:255 817:255 819:255 820:255 821:255 822:255 823:255 827:255 829:255 834:255 846:255 848:255 852:255 854:255 858:255 860:255 861:255 862:255 863:255 864:255 866:255 869:255 871:255 874:255 878:255 879:255 880:255 881:255 882:255 884:255 886:255 889:255 897:255 899:255 904:255 916:255 918:255 922:255 924:255 928:255 930:255 936:255 939:255 940:255 941:255 943:255 952:255 954:255 956:255 959:255 967:255 969:255 974:255 986:255 992:255 994:255 998:255 1000:255 1001:255 1002:255 1003:255 1004:255 1006:255 1013:255 1015:255 1016:255 1021:255 1024:255 1026:255 1029:255 1030:255 1031:255 1032:255 1033:255 1037:255 1039:255 1044:255 1056:255 1062:255 1064:255 1068:255 1070:255 1072:255 1074:255 1076:255 1083:255 1087:255 1090:255 1091:255 1093:255 1094:255 1097:255 1099:255 1103:255 1107:255 1109:255 1114:255 1126:255 1132:255 1134:255 1138:255 1140:255 1142:255 1145:255 1148:255 1149:255 1150:255 1153:255 1156:255 1160:255 1163:255 1168:255 1171:255 1173:255 1177:255 1179:255 1184:255 1197:255 1202:255 1204:255 1208:255 1210:255 1213:255 1215:255 1218:255 1220:255 1223:255 1229:255 1232:255 1241:255 1243:255 1247:255 1249:255 1254:255 1267:255 1271:255 1274:255 1275:255 1278:255 1280:255 1281:255 1282:255 1288:255 1290:255 1293:255 1298:255 1299:255 1301:255 1302:255 1307:255 1308:255 1309:255 1310:255 1311:255 1313:255 1317:255 1320:255 1324:255 1337:255 1341:255 1345:255 1348:255 1354:255 1355:255 1356:255 1357:255 1358:255 1361:255 1362:255 1363:255 1368:255 1373:255 1374:255 1377:255 1383:255 1387:255 1390:255 1394:255 1407:255 1411:255 1412:255 1413:255 1414:255 1415:255 1419:255 1420:255 1421:255 1422:255 1423:255 1424:255 1426:255 1431:255 1433:255 1438:255 1439:255 1440:255 1441:255 1447:255 1448:255 1449:255 1450:255 1451:255 1452:255 1457:255 1458:255 1459:255 1460:255 1464:255 1477:255 1499:255 1534:255 1548:255 1553:255 1565:255 1566:255 1569:255 1572:255 1573:255 1574:255 1575:255 1576:255 1581:255 1604:255 1617:255 1635:255 1636:255 1639:255 1642:255 1653:255 1656:255 1657:255 1674:255 1687:255 1688:255 1744:255 1758:255 1759:255 1760:255 1761:255 1762:255 1763:255 1764:255 1765:255 1766:255 1767:255 1768:255 1771:255 1774:255 1811:255 1812:255 1813:255 1839:255 1840:255 1842:255 1843:255 1845:255 1846:255 1847:255 1848:255 1849:255 1850:255 1851:255 1852:255 1853:255 1854:255 1855:255 1856:255 1857:255 1858:255 1859:255 1860:255 1861:255 1862:255 1863:255 1864:255 1865:255 1866:255 1867:255 1868:255 1869:255 1870:255 1871:255 1872:255 1873:255 1874:255 1875:255 1876:255 1877:255 1878:255 1879:255 1880:255 
4.881233725153428e-08 56:255 57:255 58:255 59:255 60:255 69:255 70:255 83:255 84:255 85:255 86:255 87:255 88:255 89:255 90:255 91:255 92:255 93:255 109:255 110:255 111:255 112:255 113:255 114:255 115:255 116:255 117:255 118:255 119:255 120:255 121:255 122:255 123:255 124:255 125:255 131:255 132:255 133:255 134:255 135:255 136:255 137:255 138:255 141:255 142:255 143:255 144:255 145:255 146:255 147:255 148:255 149:255 150:255 151:255 164:255 165:255 166:255 167:255 168:255 169:255 170:255 171:255 172:255 173:255 174:255 175:255 176:255 177:255 178:255 196:255 197:255 198:255 199:255 200:255 221:255 223:255 224:255 225:255 226:255 227:255 272:255 291:255 316:255 318:255 319:255 320:255 321:255 322:255 323:255 324:255 325:255 326:255 327:255 328:255 329:255 330:255 331:255 332:255 333:255 334:255 335:255 336:255 337:255 338:255 339:255 340:255 341:255 342:255 343:255 361:255 362:255 363:255 364:255 365:255 366:255 367:255 368:255 369:255 370:255 371:255 372:255 373:255 374:255 375:255 376:255 377:255 378:255 379:255 380:255 381:255 382:255 383:255 384:255 385:255 387:255 414:255 430:255 461:255 462:255 463:255 464:255 465:255 466:255 467:255 468:255 470:255 484:255 500:255 501:255 509:255 510:255 511:255 514:255 515:255 520:255 521:255 525:255 526:255 529:255 541:255 552:255 554:255 569:255 578:255 599:255 600:255 601:255 602:255 607:255 608:255 609:255 610:255 611:255 612:255 613:255 617:255 618:255 619:255 620:255 621:255 625:255 639:255 640:255 641:255 642:255 643:255 644:255 645:255 646:255 651:255 652:255 653:255 656:255 657:255 658:255 659:255 660:255 661:255 662:255 663:255 669:255 672:255 673:255 676:255 677:255 683:255 685:255 686:255 695:255 709:255 712:255 716:255 717:255 720:255 721:255 723:255 724:255 726:255 733:255 739:255 743:255 746:255 750:255 751:255 753:255 756:255 761:255 762:255 765:255 779:255 781:255 782:255 786:255 790:255 794:255 796:255 802:255 803:255 809:255 810:255 813:255 816:255 819:255 821:255 824:255 826:255 831:255 849:255 852:255 856:255 860:255 864:255 866:255 872:255 876:255 880:255 883:255 886:255 889:255 890:255 893:255 896:255 901:255 909:255 910:255 919:255 922:255 925:255 929:255 934:255 936:255 942:255 945:255 947:255 948:255 950:255 953:255 956:255 957:255 959:255 963:255 966:255 967:255 971:255 972:255 973:255 974:255 975:255 976:255 977:255 978:255 989:255 992:255 995:255 999:255 1004:255 1012:255 1015:255 1017:255 1020:255 1023:255 1027:255 1028:255 1032:255 1033:255 1037:255 1038:255 1039:255 1060:255 1062:255 1065:255 1069:255 1075:255 1082:255 1085:255 1086:255 1087:255 1090:255 1093:255 1098:255 1101:255 1102:255 1109:255 1130:255 1132:255 1136:255 1139:255 1145:255 1152:255 1153:255 1160:255 1163:255 1164:255 1167:255 1171:255 1175:255 1176:255 1177:255 1178:255 1179:255 1200:255 1201:255 1202:255 1206:255 1208:255 1209:255 1215:255 1219:255 1223:255 1224:255 1229:255 1230:255 1234:255 1237:255 1240:255 1241:255 1245:255 1270:255 1272:255 1276:255 1287:255 1288:255 1289:255 1290:255 1291:255 1294:255 1299:255 1304:255 1307:255 1309:255 1310:255 1315:255 1316:255 1317:255 1320:255 1321:255 1322:255 1328:255 1329:255 1330:255 1340:255 1342:255 1343:255 1345:255 1346:255 1348:255 1349:255 1350:255 1351:255 1352:255 1353:255 1354:255 1355:255 1358:255 1361:255 1364:255 1372:255 1375:255 1378:255 1387:255 1388:255 1389:255 1392:255 1395:255 1396:255 1397:255 1410:255 1414:255 1425:255 1426:255 1429:255 1431:255 1434:255 1435:255 1436:255 1437:255 1438:255 1439:255 1445:255 1447:255 1457:255 1459:255 1462:255 1480:255 1484:255 1496:255 1500:255 1501:255 1502:255 1503:255 1515:255 1516:255 1527:255 1528:255 1529:255 1532:255 1550:255 1553:255 1554:255 1555:255 1556:255 1566:255 1567:255 1568:255 1570:255 1586:255 1587:255 1596:255 1597:255 1599:255 1601:255 1602:255 1604:255 1620:255 1621:255 1623:255 1626:255 1627:255 1636:255 1657:255 1658:255 1659:255 1660:255 1661:255 1662:255 1663:255 1664:255 1665:255 1666:255 1667:255 1668:255 1670:255 1674:255 1675:255 1676:255 1677:255 1678:255 1679:255 1680:255 1681:255 1682:255 1683:255 1684:255 1685:255 1686:255 1687:255 1688:255 1689:255 1693:255 1695:255 1697:255 1698:255 1699:255 1700:255 1701:255 1702:255 1703:255 1704:255 1705:255 1706:255 1707:255 1708:255 1709:255 1710:255 1722:255 1723:255 1724:255 1781:255 1782:255 1783:255 1784:255 1785:255 1786:255 1787:255 1788:255 1789:255 1790:255 1791:255 1811:255 1812:255 1813:255 1814:255 1815:255 1816:255 1817:255 1818:255 1819:255 1820:255 1821:255 1822:255 1823:255 1824:255 1825:255 1826:255 1827:255 1828:255 1829:255 1830:255 1831:255 1832:255 1953:255 1954:255 1955:255 1956:255 1957:255 1958:255 1959:255 1960:255 1987:255 1988:255 1989:255 1996:255 1997:255 1998:255 1999:255 2000:255 2001:255 2002:255 2003:255 2004:255 2005:255 2006:255 2007:255 2008:255 2009:255 2010:255 2011:255 2012:255 2013:255 2014:255 2015:255 2016:255 2017:255 2018:255 2019:255 2020:255 2021:255 2022:255 2031:255 2032:255 2033:255 2034:255 2035:255 2036:255 2037:255 2038:255 2039:255 2040:255 2041:255 2042:255 2043:255 2044:255 2045:255 2046:255 2047:255 2048:255 2049:255 2050:255 2051:255 2052:255 2053:255 2054:255 2055:255 2056:255 2060:255 2061:255 2062:255 2063:255 2064:255 2065:255 2096:255 2097:255 2098:255 2099:255 2100:255 
2.712800498684791e-08 6:255 9:255 10:255 11:255 12:255 13:255 14:255 15:255 16:255 17:255 18:255 19:255 20:255 21:255 42:255 44:255 45:255 46:255 47:255 48:255 50:255 51:255 76:255 77:255 78:255 92:255 93:255 94:255 95:255 96:255 97:255 98:255 99:255 100:255 101:255 102:255 103:255 104:255 105:255 106:255 107:255 108:255 109:255 110:255 111:255 113:255 119:255 360:255 361:255 362:255 363:255 364:255 365:255 366:255 367:255 368:255 369:255 370:255 371:255 373:255 374:255 375:255 376:255 377:255 380:255 384:255 385:255 386:255 387:255 388:255 389:255 390:255 391:255 392:255 393:255 394:255 395:255 396:255 397:255 398:255 399:255 400:255 401:255 402:255 403:255 404:255 405:255 406:255 407:255 408:255 409:255 410:255 411:255 412:255 413:255 414:255 415:255 427:255 428:255 429:255 442:255 448:255 449:255 451:255 452:255 453:255 484:255 497:255 546:255 554:255 567:255 569:255 573:255 576:255 577:255 578:255 616:255 617:255 620:255 624:255 637:255 643:255 644:255 646:255 677:255 678:255 679:255 680:255 681:255 687:255 690:255 694:255 707:255 709:255 719:255 720:255 721:255 722:255 723:255 724:255 725:255 729:255 730:255 731:255 732:255 733:255 739:255 740:255 741:255 742:255 743:255 744:255 745:255 752:255 753:255 758:255 759:255 760:255 764:255 777:255 779:255 780:255 781:255 782:255 784:255 786:255 789:255 797:255 798:255 809:255 815:255 818:255 819:255 820:255 821:255 824:255 828:255 830:255 834:255 847:255 850:255 852:255 853:255 854:255 856:255 858:255 861:255 862:255 863:255 864:255 867:255 870:255 871:255 872:255 873:255 879:255 881:255 882:255 883:255 885:255 891:255 893:255 897:255 898:255 900:255 904:255 917:255 920:255 923:255 926:255 928:255 931:255 937:255 939:255 949:255 951:255 953:255 955:255 961:255 963:255 967:255 970:255 974:255 987:255 990:255 995:255 996:255 998:255 1001:255 1002:255 1003:255 1007:255 1010:255 1011:255 1015:255 1016:255 1017:255 1019:255 1021:255 1022:255 1023:255 1025:255 1031:255 1033:255 1036:255 1040:255 1044:255 1057:255 1060:255 1065:255 1068:255 1077:255 1078:255 1082:255 1083:255 1085:255 1089:255 1095:255 1100:255 1102:255 1105:255 1106:255 1111:255 1114:255 1127:255 1130:255 1134:255 1138:255 1141:255 1142:255 1148:255 1149:255 1150:255 1153:255 1156:255 1157:255 1158:255 1160:255 1161:255 1164:255 1170:255 1172:255 1175:255 1181:255 1184:255 1197:255 1200:255 1205:255 1208:255 1211:255 1221:255 1224:255 1231:255 1233:255 1234:255 1240:255 1242:255 1245:255 1246:255 1251:255 1254:255 1267:255 1270:255 1276:255 1278:255 1281:255 1288:255 1289:255 1291:255 1294:255 1300:255 1303:255 1310:255 1312:255 1317:255 1318:255 1319:255 1321:255 1324:255 1338:255 1340:255 1342:255 1343:255 1344:255 1346:255 1349:255 1351:255 1360:255 1361:255 1364:255 1370:255 1372:255 1373:255 1380:255 1381:255 1382:255 1389:255 1390:255 1391:255 1394:255 1408:255 1410:255 1412:255 1414:255 1416:255 1419:255 1427:255 1428:255 1429:255 1432:255 1433:255 1434:255 1440:255 1441:255 1442:255 1450:255 1451:255 1464:255 1478:255 1481:255 1482:255 1485:255 1500:255 1501:255 1534:255 1548:255 1551:255 1561:255 1573:255 1574:255 1575:255 1576:255 1582:255 1583:255 1585:255 1586:255 1587:255 1588:255 1589:255 1590:255 1591:255 1592:255 1593:255 1594:255 1604:255 1618:255 1620:255 1621:255 1628:255 1629:255 1632:255 1633:255 1634:255 1635:255 1636:255 1637:255 1639:255 1640:255 1641:255 1647:255 1648:255 1649:255 1655:255 1667:255 1668:255 1669:255 1674:255 1688:255 1698:255 1706:255 1709:255 1719:255 1725:255 1727:255 1728:255 1729:255 1730:255 1731:255 1732:255 1733:255 1734:255 1739:255 1744:255 1758:255 1813:255 1814:255 1828:255 1829:255 1867:255 1868:255 1869:255 1870:255 1871:255 1872:255 1873:255 1874:255 1875:255 1876:255 1877:255 1878:255 1879:255 1880:255 1881:255 1882:255 1883:255 1899:255 1900:255 1901:255 1902:255 1903:255 1904:255 1905:255 1906:255 1907:255 1908:255 1909:255 1910:255 1911:255 1912:255 1913:255 1914:255 1915:255 1916:255 1917:255 1918:255 1919:255 1920:255 1921:255 1922:255 1923:255 1924:255 1925:255 1926:255 1927:255 1928:255 1929:255 1930:255 1931:255 1932:255 1933:255 1934:255 1935:255 1936:255 
4.184762866818022e-08 319:255 320:255 321:255 322:255 323:255 324:255 325:255 326:255 327:255 328:255 329:255 330:255 331:255 332:255 333:255 334:255 335:255 336:255 337:255 338:255 339:255 340:255 341:255 342:255 343:255 344:255 345:255 346:255 347:255 348:255 349:255 350:255 351:255 352:255 353:255 354:255 355:255 356:255 357:255 358:255 359:255 360:255 361:255 362:255 363:255 364:255 365:255 366:255 367:255 368:255 369:255 370:255 371:255 372:255 373:255 374:255 375:255 376:255 377:255 378:255 379:255 380:255 381:255 382:255 383:255 384:255 385:255 386:255 387:255 388:255 414:255 484:255 500:255 501:255 502:255 503:255 504:255 505:255 543:255 546:255 547:255 548:255 549:255 554:255 568:255 572:255 580:255 581:255 582:255 583:255 584:255 585:255 586:255 587:255 588:255 589:255 590:255 591:255 592:255 593:255 594:255 595:255 596:255 597:255 598:255 599:255 600:255 601:255 602:255 603:255 604:255 605:255 606:255 607:255 608:255 609:255 611:255 612:255 614:255 616:255 619:255 620:255 624:255 638:255 642:255 647:255 648:255 649:255 685:255 688:255 689:255 690:255 694:255 709:255 714:255 717:255 742:255 743:255 748:255 749:255 750:255 751:255 755:255 760:255 761:255 764:255 780:255 785:255 787:255 788:255 789:255 790:255 791:255 792:255 793:255 794:255 795:255 796:255 797:255 798:255 799:255 812:255 814:255 818:255 821:255 825:255 826:255 827:255 828:255 831:255 834:255 849:255 851:255 852:255 853:255 855:255 856:255 869:255 881:255 882:255 884:255 885:255 886:255 888:255 891:255 898:255 901:255 904:255 918:255 921:255 923:255 924:255 925:255 929:255 931:255 932:255 933:255 936:255 939:255 950:255 951:255 954:255 958:255 961:255 968:255 971:255 973:255 988:255 991:255 995:255 997:255 999:255 1001:255 1004:255 1006:255 1009:255 1015:255 1016:255 1017:255 1019:255 1020:255 1024:255 1029:255 1031:255 1038:255 1040:255 1043:255 1059:255 1061:255 1067:255 1069:255 1071:255 1074:255 1076:255 1079:255 1085:255 1088:255 1089:255 1094:255 1095:255 1099:255 1101:255 1108:255 1110:255 1113:255 1129:255 1131:255 1137:255 1139:255 1141:255 1144:255 1146:255 1149:255 1155:255 1156:255 1159:255 1161:255 1162:255 1165:255 1168:255 1171:255 1177:255 1180:255 1183:255 1199:255 1201:255 1207:255 1209:255 1211:255 1213:255 1219:255 1227:255 1228:255 1231:255 1233:255 1235:255 1238:255 1241:255 1242:255 1247:255 1250:255 1253:255 1268:255 1271:255 1277:255 1279:255 1281:255 1282:255 1283:255 1289:255 1290:255 1291:255 1292:255 1293:255 1298:255 1299:255 1305:255 1308:255 1312:255 1317:255 1319:255 1323:255 1338:255 1341:255 1344:255 1347:255 1349:255 1355:255 1356:255 1357:255 1363:255 1364:255 1369:255 1370:255 1371:255 1373:255 1374:255 1375:255 1378:255 1379:255 1380:255 1381:255 1382:255 1387:255 1389:255 1392:255 1412:255 1413:255 1415:255 1416:255 1417:255 1419:255 1422:255 1423:255 1424:255 1429:255 1445:255 1457:255 1462:255 1481:255 1488:255 1490:255 1491:255 1496:255 1497:255 1504:255 1505:255 1506:255 1507:255 1508:255 1509:255 1510:255 1511:255 1512:255 1514:255 1516:255 1517:255 1518:255 1527:255 1529:255 1532:255 1535:255 1550:255 1564:255 1565:255 1570:255 1571:255 1572:255 1573:255 1578:255 1582:255 1589:255 1597:255 1599:255 1600:255 1602:255 1606:255 1607:255 1608:255 1609:255 1610:255 1620:255 1633:255 1638:255 1639:255 1650:255 1659:255 1660:255 1661:255 1663:255 1664:255 1665:255 1666:255 1667:255 1668:255 1670:255 1671:255 1672:255 1690:255 1691:255 1696:255 1703:255 1732:255 1762:255 1763:255 1764:255 1765:255 1766:255 1767:255 1768:255 1769:255 1770:255 1771:255 1772:255 1773:255 1774:255 1775:255 1776:255 1777:255 1778:255 1779:255 1780:255 1781:255 1782:255 1783:255 1784:255 1785:255 1786:255 1787:255 1788:255 1789:255 1790:255 1791:255 1792:255 1793:255 1794:255 1795:255 1796:255 1797:255 1798:255 1813:255 1814:255 1815:255 1819:255 1820:255 1821:255 1822:255 1823:255 1824:255 1825:255 1826:255 1827:255 1828:255 1829:255 1877:255 1878:255 1879:255 1882:255 1886:255 1887:255 1888:255 
